<?xml version="1.0"?>
<opencv_storage>
<cascade>
  <stageType>BOOST</stageType>
  <featureType>HAAR</featureType>
  <height>48</height>
  <width>24</width>
  <stageParams>
    <boostType>GAB</boostType>
    <minHitRate>9.9900001287460327e-01</minHitRate>
    <maxFalseAlarm>5.0000000000000000e-01</maxFalseAlarm>
    <weightTrimRate>9.4999999999999996e-01</weightTrimRate>
    <maxDepth>1</maxDepth>
    <maxWeakCount>100</maxWeakCount></stageParams>
  <featureParams>
    <maxCatCount>0</maxCatCount>
    <featSize>1</featSize>
    <mode>ALL</mode></featureParams>
  <stageNum>20</stageNum>
  <stages>
    <!-- stage 0 -->
    <_>
      <maxWeakCount>3</maxWeakCount>
      <stageThreshold>-1.0778540372848511e+00</stageThreshold>
      <weakClassifiers>
        <_>
          <internalNodes>
            0 -1 119 -9.3894859310239553e-04</internalNodes>
          <leafValues>
            8.3127963542938232e-01 -8.7522935867309570e-01</leafValues></_>
        <_>
          <internalNodes>
            0 -1 176 -1.8865144811570644e-03</internalNodes>
          <leafValues>
            7.7664184570312500e-01 -8.3998912572860718e-01</leafValues></_>
        <_>
          <internalNodes>
            0 -1 179 -1.7006086418405175e-03</internalNodes>
          <leafValues>
            6.3736438751220703e-01 -7.8508532047271729e-01</leafValues></_></weakClassifiers></_>
    <!-- stage 1 -->
    <_>
      <maxWeakCount>7</maxWeakCount>
      <stageThreshold>-1.7122318744659424e+00</stageThreshold>
      <weakClassifiers>
        <_>
          <internalNodes>
            0 -1 68 -8.5150654194876552e-04</internalNodes>
          <leafValues>
            7.9738563299179077e-01 -4.8680353164672852e-01</leafValues></_>
        <_>
          <internalNodes>
            0 -1 264 -1.1961788404732943e-03</internalNodes>
          <leafValues>
            6.8846303224563599e-01 -4.7415310144424438e-01</leafValues></_>
        <_>
          <internalNodes>
            0 -1 141 -4.2704418301582336e-03</internalNodes>
          <leafValues>
            4.7421866655349731e-01 -8.0482321977615356e-01</leafValues></_>
        <_>
          <internalNodes>
            0 -1 198 3.7626612465828657e-03</internalNodes>
          <leafValues>
            -7.7036249637603760e-01 5.1181435585021973e-01</leafValues></_>
        <_>
          <internalNodes>
            0 -1 97 -8.4999231621623039e-03</internalNodes>
          <leafValues>
            4.8452657461166382e-01 -6.5643185377120972e-01</leafValues></_>
        <_>
          <internalNodes>
            0 -1 254 1.3058169279247522e-03</internalNodes>
          <leafValues>
            -4.7408768534660339e-01 5.9676420688629150e-01</leafValues></_>
        <_>
          <internalNodes>
            0 -1 203 -5.6516379117965698e-04</internalNodes>
          <leafValues>
            7.8717118501663208e-01 -3.4914457798004150e-01</leafValues></_></weakClassifiers></_>
    <!-- stage 2 -->
    <_>
      <maxWeakCount>8</maxWeakCount>
      <stageThreshold>-1.4503930807113647e+00</stageThreshold>
      <weakClassifiers>
        <_>
          <internalNodes>
            0 -1 166 -2.6779065374284983e-03</internalNodes>
          <leafValues>
            7.3628693819046021e-01 -4.5705521106719971e-01</leafValues></_>
        <_>
          <internalNodes>
            0 -1 77 -3.1840525567531586e-02</internalNodes>
          <leafValues>
            4.8435455560684204e-01 -8.2025319337844849e-01</leafValues></_>
        <_>
          <internalNodes>
            0 -1 178 -5.7154176756739616e-03</internalNodes>
          <leafValues>
            5.3806680440902710e-01 -6.3706439733505249e-01</leafValues></_>
        <_>
          <internalNodes>
            0 -1 250 1.1571507900953293e-02</internalNodes>
          <leafValues>
            -5.8985251188278198e-01 4.6127524971961975e-01</leafValues></_>
        <_>
          <internalNodes>
            0 -1 126 2.0452833268791437e-03</internalNodes>
          <leafValues>
            -4.4159001111984253e-01 5.3256523609161377e-01</leafValues></_>
        <_>
          <internalNodes>
            0 -1 105 2.1083250641822815e-02</internalNodes>
          <leafValues>
            -5.9004491567611694e-01 3.9055937528610229e-01</leafValues></_>
        <_>
          <internalNodes>
            0 -1 182 -6.5529737621545792e-03</internalNodes>
          <leafValues>
            3.7755236029624939e-01 -6.0996037721633911e-01</leafValues></_>
        <_>
          <internalNodes>
            0 -1 114 1.2234493624418974e-03</internalNodes>
          <leafValues>
            -4.4137158989906311e-01 4.8673132061958313e-01</leafValues></_></weakClassifiers></_>
    <!-- stage 3 -->
    <_>
      <maxWeakCount>9</maxWeakCount>
      <stageThreshold>-1.5688747167587280e+00</stageThreshold>
      <weakClassifiers>
        <_>
          <internalNodes>
            0 -1 170 5.9213666245341301e-03</internalNodes>
          <leafValues>
            -5.7337886095046997e-01 7.2583824396133423e-01</leafValues></_>
        <_>
          <internalNodes>
            0 -1 241 5.7629216462373734e-03</internalNodes>
          <leafValues>
            -4.1307917237281799e-01 6.8551540374755859e-01</leafValues></_>
        <_>
          <internalNodes>
            0 -1 236 2.6460783556103706e-03</internalNodes>
          <leafValues>
            3.3902993798255920e-01 -7.7210527658462524e-01</leafValues></_>
        <_>
          <internalNodes>
            0 -1 29 1.3686925172805786e-02</internalNodes>
          <leafValues>
            -7.4213582277297974e-01 3.3185222744941711e-01</leafValues></_>
        <_>
          <internalNodes>
            0 -1 147 -4.9703540280461311e-03</internalNodes>
          <leafValues>
            8.8871240615844727e-01 -3.0363029241561890e-01</leafValues></_>
        <_>
          <internalNodes>
            0 -1 201 4.8242541961371899e-03</internalNodes>
          <leafValues>
            -2.6845055818557739e-01 7.5095546245574951e-01</leafValues></_>
        <_>
          <internalNodes>
            0 -1 171 1.1785759124904871e-03</internalNodes>
          <leafValues>
            -2.2080734372138977e-01 7.7504241466522217e-01</leafValues></_>
        <_>
          <internalNodes>
            0 -1 149 2.5714868679642677e-03</internalNodes>
          <leafValues>
            -1.8738825619220734e-01 8.4780979156494141e-01</leafValues></_>
        <_>
          <internalNodes>
            0 -1 25 8.1891333684325218e-04</internalNodes>
          <leafValues>
            -3.8296598196029663e-01 4.4406896829605103e-01</leafValues></_></weakClassifiers></_>
    <!-- stage 4 -->
    <_>
      <maxWeakCount>14</maxWeakCount>
      <stageThreshold>-1.9211277961730957e+00</stageThreshold>
      <weakClassifiers>
        <_>
          <internalNodes>
            0 -1 177 -2.5544583331793547e-03</internalNodes>
          <leafValues>
            6.2666666507720947e-01 -4.6909090876579285e-01</leafValues></_>
        <_>
          <internalNodes>
            0 -1 259 -4.3977182358503342e-03</internalNodes>
          <leafValues>
            5.4637140035629272e-01 -3.9652606844902039e-01</leafValues></_>
        <_>
          <internalNodes>
            0 -1 125 -1.9636643119156361e-03</internalNodes>
          <leafValues>
            7.0708006620407104e-01 -2.9152140021324158e-01</leafValues></_>
        <_>
          <internalNodes>
            0 -1 113 -6.2930863350629807e-03</internalNodes>
          <leafValues>
            3.2952558994293213e-01 -7.0110267400741577e-01</leafValues></_>
        <_>
          <internalNodes>
            0 -1 8 -5.1483005285263062e-02</internalNodes>
          <leafValues>
            4.4949617981910706e-01 -4.6546143293380737e-01</leafValues></_>
        <_>
          <internalNodes>
            0 -1 191 7.9399785026907921e-03</internalNodes>
          <leafValues>
            2.4456256628036499e-01 -8.6814856529235840e-01</leafValues></_>
        <_>
          <internalNodes>
            0 -1 124 7.9828426241874695e-03</internalNodes>
          <leafValues>
            -3.2705414295196533e-01 5.7464778423309326e-01</leafValues></_>
        <_>
          <internalNodes>
            0 -1 95 -1.3973992317914963e-03</internalNodes>
          <leafValues>
            6.0152137279510498e-01 -3.6527684330940247e-01</leafValues></_>
        <_>
          <internalNodes>
            0 -1 164 -1.1601688340306282e-02</internalNodes>
          <leafValues>
            2.5188264250755310e-01 -8.3926630020141602e-01</leafValues></_>
        <_>
          <internalNodes>
            0 -1 91 1.1849161237478256e-03</internalNodes>
          <leafValues>
            -2.6151099801063538e-01 7.0710676908493042e-01</leafValues></_>
        <_>
          <internalNodes>
            0 -1 266 -1.1992132291197777e-02</internalNodes>
          <leafValues>
            -8.2444089651107788e-01 2.1591329574584961e-01</leafValues></_>
        <_>
          <internalNodes>
            0 -1 129 6.7942566238343716e-04</internalNodes>
          <leafValues>
            -2.7413728833198547e-01 6.1170423030853271e-01</leafValues></_>
        <_>
          <internalNodes>
            0 -1 154 1.0168378939852118e-03</internalNodes>
          <leafValues>
            -3.1420704722404480e-01 6.8721956014633179e-01</leafValues></_>
        <_>
          <internalNodes>
            0 -1 76 -8.0111809074878693e-03</internalNodes>
          <leafValues>
            -8.5664051771163940e-01 2.3380100727081299e-01</leafValues></_></weakClassifiers></_>
    <!-- stage 5 -->
    <_>
      <maxWeakCount>12</maxWeakCount>
      <stageThreshold>-1.2068258523941040e+00</stageThreshold>
      <weakClassifiers>
        <_>
          <internalNodes>
            0 -1 199 7.6362565159797668e-03</internalNodes>
          <leafValues>
            -5.7368421554565430e-01 5.0655740499496460e-01</leafValues></_>
        <_>
          <internalNodes>
            0 -1 122 -3.1710618641227484e-03</internalNodes>
          <leafValues>
            7.1332162618637085e-01 -3.1146287918090820e-01</leafValues></_>
        <_>
          <internalNodes>
            0 -1 106 3.0388709157705307e-02</internalNodes>
          <leafValues>
            -5.7170611619949341e-01 3.4527054429054260e-01</leafValues></_>
        <_>
          <internalNodes>
            0 -1 245 -1.7874056939035654e-03</internalNodes>
          <leafValues>
            3.7086364626884460e-01 -4.7763875126838684e-01</leafValues></_>
        <_>
          <internalNodes>
            0 -1 173 2.4114784318953753e-03</internalNodes>
          <leafValues>
            -2.2975172102451324e-01 6.6105413436889648e-01</leafValues></_>
        <_>
          <internalNodes>
            0 -1 133 -2.5529028847813606e-02</internalNodes>
          <leafValues>
            -8.1274950504302979e-01 1.8633490800857544e-01</leafValues></_>
        <_>
          <internalNodes>
            0 -1 252 5.8595426380634308e-03</internalNodes>
          <leafValues>
            1.6501404345035553e-01 -8.4482222795486450e-01</leafValues></_>
        <_>
          <internalNodes>
            0 -1 2 5.1114290952682495e-01</internalNodes>
          <leafValues>
            -2.7210682630538940e-01 6.5110325813293457e-01</leafValues></_>
        <_>
          <internalNodes>
            0 -1 1 -1.1750549077987671e-01</internalNodes>
          <leafValues>
            7.8737181425094604e-01 -1.6705557703971863e-01</leafValues></_>
        <_>
          <internalNodes>
            0 -1 11 9.5069110393524170e-03</internalNodes>
          <leafValues>
            -2.1167802810668945e-01 6.4625722169876099e-01</leafValues></_>
        <_>
          <internalNodes>
            0 -1 224 2.3643530905246735e-02</internalNodes>
          <leafValues>
            1.9407421350479126e-01 -8.6532223224639893e-01</leafValues></_>
        <_>
          <internalNodes>
            0 -1 17 -1.2077500286977738e-04</internalNodes>
          <leafValues>
            -5.3796100616455078e-01 2.1433265507221222e-01</leafValues></_></weakClassifiers></_>
    <!-- stage 6 -->
    <_>
      <maxWeakCount>13</maxWeakCount>
      <stageThreshold>-1.4048593044281006e+00</stageThreshold>
      <weakClassifiers>
        <_>
          <internalNodes>
            0 -1 172 4.7104987315833569e-03</internalNodes>
          <leafValues>
            -1.7090068757534027e-01 7.4659401178359985e-01</leafValues></_>
        <_>
          <internalNodes>
            0 -1 126 1.5305858105421066e-03</internalNodes>
          <leafValues>
            -4.3753716349601746e-01 4.2441129684448242e-01</leafValues></_>
        <_>
          <internalNodes>
            0 -1 37 2.4637613445520401e-02</internalNodes>
          <leafValues>
            -3.9671179652214050e-01 3.9856165647506714e-01</leafValues></_>
        <_>
          <internalNodes>
            0 -1 226 3.0363544356077909e-03</internalNodes>
          <leafValues>
            -5.6398034095764160e-01 2.7072432637214661e-01</leafValues></_>
        <_>
          <internalNodes>
            0 -1 144 6.6349296830594540e-03</internalNodes>
          <leafValues>
            -2.9661777615547180e-01 5.9226042032241821e-01</leafValues></_>
        <_>
          <internalNodes>
            0 -1 222 1.2438626959919930e-02</internalNodes>
          <leafValues>
            -8.2547032833099365e-01 2.6268595457077026e-01</leafValues></_>
        <_>
          <internalNodes>
            0 -1 150 3.9466358721256256e-03</internalNodes>
          <leafValues>
            -3.4534877538681030e-01 5.1667928695678711e-01</leafValues></_>
        <_>
          <internalNodes>
            0 -1 81 -2.4004606530070305e-03</internalNodes>
          <leafValues>
            -7.2339016199111938e-01 1.9926181435585022e-01</leafValues></_>
        <_>
          <internalNodes>
            0 -1 58 -4.2675286531448364e-03</internalNodes>
          <leafValues>
            -7.8503102064132690e-01 2.0559421181678772e-01</leafValues></_>
        <_>
          <internalNodes>
            0 -1 45 1.2175968848168850e-02</internalNodes>
          <leafValues>
            1.2728713452816010e-01 -7.9744076728820801e-01</leafValues></_>
        <_>
          <internalNodes>
            0 -1 203 -6.0303451027721167e-04</internalNodes>
          <leafValues>
            5.1613825559616089e-01 -2.6171344518661499e-01</leafValues></_>
        <_>
          <internalNodes>
            0 -1 192 -1.4803222380578518e-02</internalNodes>
          <leafValues>
            -8.7080246210098267e-01 1.5885853767395020e-01</leafValues></_>
        <_>
          <internalNodes>
            0 -1 219 -1.6503487713634968e-03</internalNodes>
          <leafValues>
            9.3248313665390015e-01 -1.7574951052665710e-01</leafValues></_></weakClassifiers></_>
    <!-- stage 7 -->
    <_>
      <maxWeakCount>13</maxWeakCount>
      <stageThreshold>-1.5123206377029419e+00</stageThreshold>
      <weakClassifiers>
        <_>
          <internalNodes>
            0 -1 68 -1.6870324034243822e-03</internalNodes>
          <leafValues>
            6.8217933177947998e-01 -2.7955493330955505e-01</leafValues></_>
        <_>
          <internalNodes>
            0 -1 172 4.9560572952032089e-03</internalNodes>
          <leafValues>
            -2.8190940618515015e-01 6.5697574615478516e-01</leafValues></_>
        <_>
          <internalNodes>
            0 -1 175 4.9324578139930964e-04</internalNodes>
          <leafValues>
            -2.4537597596645355e-01 6.5077251195907593e-01</leafValues></_>
        <_>
          <internalNodes>
            0 -1 153 -5.3789671510457993e-03</internalNodes>
          <leafValues>
            2.7320930361747742e-01 -6.0722768306732178e-01</leafValues></_>
        <_>
          <internalNodes>
            0 -1 260 -4.5614782720804214e-03</internalNodes>
          <leafValues>
            4.4273960590362549e-01 -3.2354882359504700e-01</leafValues></_>
        <_>
          <internalNodes>
            0 -1 237 -8.7950017768889666e-04</internalNodes>
          <leafValues>
            -7.7574867010116577e-01 1.6367357969284058e-01</leafValues></_>
        <_>
          <internalNodes>
            0 -1 230 7.5816293247044086e-04</internalNodes>
          <leafValues>
            -2.2629639506340027e-01 6.4464980363845825e-01</leafValues></_>
        <_>
          <internalNodes>
            0 -1 21 9.8468195647001266e-03</internalNodes>
          <leafValues>
            -4.2230653762817383e-01 3.5838332772254944e-01</leafValues></_>
        <_>
          <internalNodes>
            0 -1 101 1.0431772097945213e-03</internalNodes>
          <leafValues>
            -2.4639502167701721e-01 5.4104077816009521e-01</leafValues></_>
        <_>
          <internalNodes>
            0 -1 69 1.3408402446657419e-03</internalNodes>
          <leafValues>
            -3.1752359867095947e-01 4.6054133772850037e-01</leafValues></_>
        <_>
          <internalNodes>
            0 -1 205 1.3897541910409927e-02</internalNodes>
          <leafValues>
            -3.2827991247177124e-01 3.5749301314353943e-01</leafValues></_>
        <_>
          <internalNodes>
            0 -1 184 1.4732884243130684e-02</internalNodes>
          <leafValues>
            1.8250085413455963e-01 -8.0290454626083374e-01</leafValues></_>
        <_>
          <internalNodes>
            0 -1 201 6.4417184330523014e-03</internalNodes>
          <leafValues>
            -2.3387470841407776e-01 6.3248729705810547e-01</leafValues></_></weakClassifiers></_>
    <!-- stage 8 -->
    <_>
      <maxWeakCount>16</maxWeakCount>
      <stageThreshold>-1.1226731538772583e+00</stageThreshold>
      <weakClassifiers>
        <_>
          <internalNodes>
            0 -1 44 -1.4348980039358139e-03</internalNodes>
          <leafValues>
            5.5925565958023071e-01 -2.9533678293228149e-01</leafValues></_>
        <_>
          <internalNodes>
            0 -1 207 2.6546680601313710e-04</internalNodes>
          <leafValues>
            -8.6743837594985962e-01 2.2145253419876099e-01</leafValues></_>
        <_>
          <internalNodes>
            0 -1 253 -4.4936831109225750e-03</internalNodes>
          <leafValues>
            5.3306895494461060e-01 -3.3110243082046509e-01</leafValues></_>
        <_>
          <internalNodes>
            0 -1 188 -7.8126313164830208e-03</internalNodes>
          <leafValues>
            1.8058206140995026e-01 -6.4488196372985840e-01</leafValues></_>
        <_>
          <internalNodes>
            0 -1 180 -1.2603937648236752e-03</internalNodes>
          <leafValues>
            6.9047915935516357e-01 -2.0039238035678864e-01</leafValues></_>
        <_>
          <internalNodes>
            0 -1 89 -1.9728462211787701e-03</internalNodes>
          <leafValues>
            6.9963896274566650e-01 -1.4653861522674561e-01</leafValues></_>
        <_>
          <internalNodes>
            0 -1 33 -9.5545118674635887e-03</internalNodes>
          <leafValues>
            -8.8611084222793579e-01 1.3048785924911499e-01</leafValues></_>
        <_>
          <internalNodes>
            0 -1 98 1.4720824547111988e-03</internalNodes>
          <leafValues>
            -1.8984772264957428e-01 6.5328621864318848e-01</leafValues></_>
        <_>
          <internalNodes>
            0 -1 140 1.1807065457105637e-02</internalNodes>
          <leafValues>
            1.7393147945404053e-01 -6.7859953641891479e-01</leafValues></_>
        <_>
          <internalNodes>
            0 -1 0 2.1132633090019226e-02</internalNodes>
          <leafValues>
            -2.9364559054374695e-01 4.0140271186828613e-01</leafValues></_>
        <_>
          <internalNodes>
            0 -1 185 2.7920026332139969e-04</internalNodes>
          <leafValues>
            -3.6369034647941589e-01 3.2143741846084595e-01</leafValues></_>
        <_>
          <internalNodes>
            0 -1 247 6.4829075708985329e-03</internalNodes>
          <leafValues>
            -3.2985854148864746e-01 3.6395433545112610e-01</leafValues></_>
        <_>
          <internalNodes>
            0 -1 193 -6.9041467213537544e-05</internalNodes>
          <leafValues>
            -4.6532109379768372e-01 2.2282497584819794e-01</leafValues></_>
        <_>
          <internalNodes>
            0 -1 187 5.9964645515719894e-06</internalNodes>
          <leafValues>
            -4.4205161929130554e-01 2.6219582557678223e-01</leafValues></_>
        <_>
          <internalNodes>
            0 -1 90 -8.5012149065732956e-04</internalNodes>
          <leafValues>
            7.2886681556701660e-01 -1.9214861094951630e-01</leafValues></_>
        <_>
          <internalNodes>
            0 -1 40 -6.9149158895015717e-02</internalNodes>
          <leafValues>
            -7.2262614965438843e-01 1.8891413509845734e-01</leafValues></_></weakClassifiers></_>
    <!-- stage 9 -->
    <_>
      <maxWeakCount>16</maxWeakCount>
      <stageThreshold>-1.2900155782699585e+00</stageThreshold>
      <weakClassifiers>
        <_>
          <internalNodes>
            0 -1 168 -1.1632603127509356e-03</internalNodes>
          <leafValues>
            5.2867382764816284e-01 -3.9256197214126587e-01</leafValues></_>
        <_>
          <internalNodes>
            0 -1 246 -3.9287195540964603e-03</internalNodes>
          <leafValues>
            4.0901038050651550e-01 -3.5438370704650879e-01</leafValues></_>
        <_>
          <internalNodes>
            0 -1 92 -1.9544914830476046e-03</internalNodes>
          <leafValues>
            6.9979733228683472e-01 -1.8912729620933533e-01</leafValues></_>
        <_>
          <internalNodes>
            0 -1 85 1.0220322292298079e-03</internalNodes>
          <leafValues>
            -2.0253443717956543e-01 6.5835922956466675e-01</leafValues></_>
        <_>
          <internalNodes>
            0 -1 62 1.0293729603290558e-02</internalNodes>
          <leafValues>
            1.6678385436534882e-01 -8.5825645923614502e-01</leafValues></_>
        <_>
          <internalNodes>
            0 -1 87 -1.1532770469784737e-02</internalNodes>
          <leafValues>
            -8.2345926761627197e-01 1.3308489322662354e-01</leafValues></_>
        <_>
          <internalNodes>
            0 -1 59 1.5831962227821350e-03</internalNodes>
          <leafValues>
            -2.9109117388725281e-01 4.0560019016265869e-01</leafValues></_>
        <_>
          <internalNodes>
            0 -1 180 -1.3755082618445158e-03</internalNodes>
          <leafValues>
            7.5075399875640869e-01 -1.4805175364017487e-01</leafValues></_>
        <_>
          <internalNodes>
            0 -1 83 2.0720413886010647e-03</internalNodes>
          <leafValues>
            -2.1894253790378571e-01 5.9212994575500488e-01</leafValues></_>
        <_>
          <internalNodes>
            0 -1 123 -2.7175745926797390e-03</internalNodes>
          <leafValues>
            5.2826327085494995e-01 -2.3709321022033691e-01</leafValues></_>
        <_>
          <internalNodes>
            0 -1 139 3.0724750831723213e-03</internalNodes>
          <leafValues>
            1.8377594649791718e-01 -9.5019143819808960e-01</leafValues></_>
        <_>
          <internalNodes>
            0 -1 89 -1.3952997978776693e-03</internalNodes>
          <leafValues>
            4.7475877404212952e-01 -2.8338208794593811e-01</leafValues></_>
        <_>
          <internalNodes>
            0 -1 231 4.5177880674600601e-03</internalNodes>
          <leafValues>
            1.4755570888519287e-01 -8.2739955186843872e-01</leafValues></_>
        <_>
          <internalNodes>
            0 -1 219 1.2278286740183830e-03</internalNodes>
          <leafValues>
            -2.1117159724235535e-01 6.0156059265136719e-01</leafValues></_>
        <_>
          <internalNodes>
            0 -1 74 -8.5298437625169754e-03</internalNodes>
          <leafValues>
            3.0457592010498047e-01 -4.1900813579559326e-01</leafValues></_>
        <_>
          <internalNodes>
            0 -1 197 3.6899927072227001e-03</internalNodes>
          <leafValues>
            -2.5687608122825623e-01 4.9569797515869141e-01</leafValues></_></weakClassifiers></_>
    <!-- stage 10 -->
    <_>
      <maxWeakCount>19</maxWeakCount>
      <stageThreshold>-1.6465144157409668e+00</stageThreshold>
      <weakClassifiers>
        <_>
          <internalNodes>
            0 -1 86 4.3361461721360683e-03</internalNodes>
          <leafValues>
            -2.7638190984725952e-01 5.6331008672714233e-01</leafValues></_>
        <_>
          <internalNodes>
            0 -1 157 5.1513969898223877e-02</internalNodes>
          <leafValues>
            -3.4979170560836792e-01 4.8212775588035583e-01</leafValues></_>
        <_>
          <internalNodes>
            0 -1 46 7.2145075537264347e-03</internalNodes>
          <leafValues>
            1.3897112011909485e-01 -8.2970738410949707e-01</leafValues></_>
        <_>
          <internalNodes>
            0 -1 248 -2.7469038031995296e-03</internalNodes>
          <leafValues>
            6.9218981266021729e-01 -1.6896995902061462e-01</leafValues></_>
        <_>
          <internalNodes>
            0 -1 194 6.0122166760265827e-03</internalNodes>
          <leafValues>
            -2.5381055474281311e-01 4.1638451814651489e-01</leafValues></_>
        <_>
          <internalNodes>
            0 -1 35 8.5275023593567312e-05</internalNodes>
          <leafValues>
            2.4453121423721313e-01 -5.1989710330963135e-01</leafValues></_>
        <_>
          <internalNodes>
            0 -1 271 -2.3604465241078287e-04</internalNodes>
          <leafValues>
            -5.7525873184204102e-01 1.8396033346652985e-01</leafValues></_>
        <_>
          <internalNodes>
            0 -1 213 -6.7378306994214654e-05</internalNodes>
          <leafValues>
            -4.3596044182777405e-01 2.4779219925403595e-01</leafValues></_>
        <_>
          <internalNodes>
            0 -1 213 6.9752917625010014e-05</internalNodes>
          <leafValues>
            2.5253114104270935e-01 -4.7535732388496399e-01</leafValues></_>
        <_>
          <internalNodes>
            0 -1 65 -4.2199641466140747e-03</internalNodes>
          <leafValues>
            6.1068654060363770e-01 -2.2297936677932739e-01</leafValues></_>
        <_>
          <internalNodes>
            0 -1 47 -1.8906417244579643e-04</internalNodes>
          <leafValues>
            -5.6885743141174316e-01 2.3415020108222961e-01</leafValues></_>
        <_>
          <internalNodes>
            0 -1 96 -2.8338662814348936e-03</internalNodes>
          <leafValues>
            5.1027154922485352e-01 -2.4501708149909973e-01</leafValues></_>
        <_>
          <internalNodes>
            0 -1 47 8.0710924521554261e-05</internalNodes>
          <leafValues>
            3.0182191729545593e-01 -4.6435737609863281e-01</leafValues></_>
        <_>
          <internalNodes>
            0 -1 12 -4.5761853456497192e-02</internalNodes>
          <leafValues>
            4.2533621191978455e-01 -2.9154056310653687e-01</leafValues></_>
        <_>
          <internalNodes>
            0 -1 270 9.6055482572410256e-05</internalNodes>
          <leafValues>
            2.2586075961589813e-01 -5.2894306182861328e-01</leafValues></_>
        <_>
          <internalNodes>
            0 -1 114 6.3135967138805427e-06</internalNodes>
          <leafValues>
            -4.5368385314941406e-01 2.5747168064117432e-01</leafValues></_>
        <_>
          <internalNodes>
            0 -1 18 -1.0654756624717265e-04</internalNodes>
          <leafValues>
            -5.5447638034820557e-01 2.2169919312000275e-01</leafValues></_>
        <_>
          <internalNodes>
            0 -1 94 1.4782999642193317e-03</internalNodes>
          <leafValues>
            -1.9119125604629517e-01 5.8438712358474731e-01</leafValues></_>
        <_>
          <internalNodes>
            0 -1 18 1.1778376938309520e-04</internalNodes>
          <leafValues>
            2.2003738582134247e-01 -5.4128086566925049e-01</leafValues></_></weakClassifiers></_>
    <!-- stage 11 -->
    <_>
      <maxWeakCount>17</maxWeakCount>
      <stageThreshold>-9.5555639266967773e-01</stageThreshold>
      <weakClassifiers>
        <_>
          <internalNodes>
            0 -1 124 7.8778294846415520e-03</internalNodes>
          <leafValues>
            -1.5616437792778015e-01 5.9080457687377930e-01</leafValues></_>
        <_>
          <internalNodes>
            0 -1 216 1.2952731922268867e-03</internalNodes>
          <leafValues>
            -1.9792883098125458e-01 5.9330964088439941e-01</leafValues></_>
        <_>
          <internalNodes>
            0 -1 63 -1.5439707785844803e-02</internalNodes>
          <leafValues>
            -7.2876280546188354e-01 1.9055800139904022e-01</leafValues></_>
        <_>
          <internalNodes>
            0 -1 127 2.0850481814704835e-04</internalNodes>
          <leafValues>
            1.8096506595611572e-01 -5.5447536706924438e-01</leafValues></_>
        <_>
          <internalNodes>
            0 -1 15 1.3807720970362425e-03</internalNodes>
          <leafValues>
            -4.5066168904304504e-01 2.2907058894634247e-01</leafValues></_>
        <_>
          <internalNodes>
            0 -1 215 1.1528639588505030e-03</internalNodes>
          <leafValues>
            -2.2600039839744568e-01 6.0413378477096558e-01</leafValues></_>
        <_>
          <internalNodes>
            0 -1 209 -7.5884847319684923e-05</internalNodes>
          <leafValues>
            -4.2888623476028442e-01 3.0052971839904785e-01</leafValues></_>
        <_>
          <internalNodes>
            0 -1 24 -1.0399988852441311e-02</internalNodes>
          <leafValues>
            -9.0042370557785034e-01 1.2886744737625122e-01</leafValues></_>
        <_>
          <internalNodes>
            0 -1 234 4.2062029242515564e-02</internalNodes>
          <leafValues>
            -2.0787897706031799e-01 7.7153187990188599e-01</leafValues></_>
        <_>
          <internalNodes>
            0 -1 227 -9.4733797013759613e-03</internalNodes>
          <leafValues>
            -7.9594463109970093e-01 1.8022827804088593e-01</leafValues></_>
        <_>
          <internalNodes>
            0 -1 7 1.8849756568670273e-02</internalNodes>
          <leafValues>
            -2.1141575276851654e-01 5.4761445522308350e-01</leafValues></_>
        <_>
          <internalNodes>
            0 -1 221 -5.6570046581327915e-03</internalNodes>
          <leafValues>
            1.4945663511753082e-01 -7.0246422290802002e-01</leafValues></_>
        <_>
          <internalNodes>
            0 -1 274 1.5295171178877354e-03</internalNodes>
          <leafValues>
            -1.5140937268733978e-01 8.1238692998886108e-01</leafValues></_>
        <_>
          <internalNodes>
            0 -1 269 5.2800297271460295e-04</internalNodes>
          <leafValues>
            -2.0019748806953430e-01 5.4203677177429199e-01</leafValues></_>
        <_>
          <internalNodes>
            0 -1 167 9.3174520879983902e-03</internalNodes>
          <leafValues>
            1.4149345457553864e-01 -7.6450836658477783e-01</leafValues></_>
        <_>
          <internalNodes>
            0 -1 82 1.8135840073227882e-03</internalNodes>
          <leafValues>
            -2.8176882863044739e-01 3.6810174584388733e-01</leafValues></_>
        <_>
          <internalNodes>
            0 -1 263 -7.4880318716168404e-03</internalNodes>
          <leafValues>
            -6.6050970554351807e-01 1.8092909455299377e-01</leafValues></_></weakClassifiers></_>
    <!-- stage 12 -->
    <_>
      <maxWeakCount>21</maxWeakCount>
      <stageThreshold>-1.3093177080154419e+00</stageThreshold>
      <weakClassifiers>
        <_>
          <internalNodes>
            0 -1 240 6.0515850782394409e-03</internalNodes>
          <leafValues>
            -2.5000000000000000e-01 5.1923078298568726e-01</leafValues></_>
        <_>
          <internalNodes>
            0 -1 146 -4.5463144779205322e-03</internalNodes>
          <leafValues>
            4.6749326586723328e-01 -2.5595393776893616e-01</leafValues></_>
        <_>
          <internalNodes>
            0 -1 104 2.0905727520585060e-02</internalNodes>
          <leafValues>
            -3.3833414316177368e-01 3.0638489127159119e-01</leafValues></_>
        <_>
          <internalNodes>
            0 -1 230 1.1304588988423347e-03</internalNodes>
          <leafValues>
            -1.4867326617240906e-01 6.2357038259506226e-01</leafValues></_>
        <_>
          <internalNodes>
            0 -1 73 -1.2976417317986488e-02</internalNodes>
          <leafValues>
            2.2776752710342407e-01 -4.3197679519653320e-01</leafValues></_>
        <_>
          <internalNodes>
            0 -1 100 1.2121223844587803e-03</internalNodes>
          <leafValues>
            -2.7927252650260925e-01 3.3504533767700195e-01</leafValues></_>
        <_>
          <internalNodes>
            0 -1 32 4.8688761889934540e-02</internalNodes>
          <leafValues>
            1.1143726855516434e-01 -7.8752648830413818e-01</leafValues></_>
        <_>
          <internalNodes>
            0 -1 128 2.3599918931722641e-03</internalNodes>
          <leafValues>
            -2.6941332221031189e-01 3.7346503138542175e-01</leafValues></_>
        <_>
          <internalNodes>
            0 -1 189 9.7697455203160644e-05</internalNodes>
          <leafValues>
            1.8301229178905487e-01 -5.0245493650436401e-01</leafValues></_>
        <_>
          <internalNodes>
            0 -1 143 1.0609340388327837e-03</internalNodes>
          <leafValues>
            -3.6429637670516968e-01 2.6023694872856140e-01</leafValues></_>
        <_>
          <internalNodes>
            0 -1 273 -5.9682416031137109e-04</internalNodes>
          <leafValues>
            -5.0235533714294434e-01 1.8681161105632782e-01</leafValues></_>
        <_>
          <internalNodes>
            0 -1 79 6.2759245338384062e-05</internalNodes>
          <leafValues>
            -3.4135037660598755e-01 2.8386366367340088e-01</leafValues></_>
        <_>
          <internalNodes>
            0 -1 60 9.9745439365506172e-04</internalNodes>
          <leafValues>
            -3.2561150193214417e-01 3.0737784504890442e-01</leafValues></_>
        <_>
          <internalNodes>
            0 -1 80 1.1242447653785348e-03</internalNodes>
          <leafValues>
            -1.6929022967815399e-01 5.7237720489501953e-01</leafValues></_>
        <_>
          <internalNodes>
            0 -1 186 -8.3423256874084473e-03</internalNodes>
          <leafValues>
            -6.7645633220672607e-01 1.6051454842090607e-01</leafValues></_>
        <_>
          <internalNodes>
            0 -1 210 1.0875139851123095e-03</internalNodes>
          <leafValues>
            -7.2688060998916626e-01 1.0550900548696518e-01</leafValues></_>
        <_>
          <internalNodes>
            0 -1 217 -7.7793784439563751e-03</internalNodes>
          <leafValues>
            -8.3910739421844482e-01 1.0052680224180222e-01</leafValues></_>
        <_>
          <internalNodes>
            0 -1 238 -1.5836060047149658e-02</internalNodes>
          <leafValues>
            -6.8771648406982422e-01 1.3226899504661560e-01</leafValues></_>
        <_>
          <internalNodes>
            0 -1 14 9.5915317535400391e-02</internalNodes>
          <leafValues>
            -2.2088420391082764e-01 5.5952692031860352e-01</leafValues></_>
        <_>
          <internalNodes>
            0 -1 132 9.9415156000759453e-06</internalNodes>
          <leafValues>
            -3.4054702520370483e-01 2.7322924137115479e-01</leafValues></_>
        <_>
          <internalNodes>
            0 -1 61 9.0592708438634872e-03</internalNodes>
          <leafValues>
            1.0277275741100311e-01 -8.3391290903091431e-01</leafValues></_></weakClassifiers></_>
    <!-- stage 13 -->
    <_>
      <maxWeakCount>19</maxWeakCount>
      <stageThreshold>-1.2779135704040527e+00</stageThreshold>
      <weakClassifiers>
        <_>
          <internalNodes>
            0 -1 172 5.4252622649073601e-03</internalNodes>
          <leafValues>
            -8.7053574621677399e-02 6.7897725105285645e-01</leafValues></_>
        <_>
          <internalNodes>
            0 -1 39 -1.7036622390151024e-02</internalNodes>
          <leafValues>
            -7.4583268165588379e-01 2.2641542553901672e-01</leafValues></_>
        <_>
          <internalNodes>
            0 -1 257 -1.0766355320811272e-02</internalNodes>
          <leafValues>
            3.6255198717117310e-01 -3.1534227728843689e-01</leafValues></_>
        <_>
          <internalNodes>
            0 -1 51 8.8555214460939169e-05</internalNodes>
          <leafValues>
            2.0000642538070679e-01 -5.0389766693115234e-01</leafValues></_>
        <_>
          <internalNodes>
            0 -1 51 -1.1111919593531638e-04</internalNodes>
          <leafValues>
            -5.0064802169799805e-01 2.1414501965045929e-01</leafValues></_>
        <_>
          <internalNodes>
            0 -1 159 6.8377266870811582e-04</internalNodes>
          <leafValues>
            -3.7777400016784668e-01 2.6471826434135437e-01</leafValues></_>
        <_>
          <internalNodes>
            0 -1 93 1.6504039522260427e-03</internalNodes>
          <leafValues>
            -2.3614653944969177e-01 3.9965027570724487e-01</leafValues></_>
        <_>
          <internalNodes>
            0 -1 71 9.7618030849844217e-04</internalNodes>
          <leafValues>
            -4.0114024281501770e-01 3.0660015344619751e-01</leafValues></_>
        <_>
          <internalNodes>
            0 -1 152 -1.2037726119160652e-03</internalNodes>
          <leafValues>
            2.2426372766494751e-01 -5.0783073902130127e-01</leafValues></_>
        <_>
          <internalNodes>
            0 -1 78 1.5241871587932110e-03</internalNodes>
          <leafValues>
            -2.7661392092704773e-01 3.7568336725234985e-01</leafValues></_>
        <_>
          <internalNodes>
            0 -1 190 -7.5905489211436361e-05</internalNodes>
          <leafValues>
            -3.5735595226287842e-01 2.8075399994850159e-01</leafValues></_>
        <_>
          <internalNodes>
            0 -1 118 -5.9181950055062771e-03</internalNodes>
          <leafValues>
            2.5989714264869690e-01 -4.8019751906394958e-01</leafValues></_>
        <_>
          <internalNodes>
            0 -1 56 -2.6841375976800919e-02</internalNodes>
          <leafValues>
            3.1567227840423584e-01 -3.0031076073646545e-01</leafValues></_>
        <_>
          <internalNodes>
            0 -1 102 2.5501666590571404e-02</internalNodes>
          <leafValues>
            1.3256983458995819e-01 -7.1675878763198853e-01</leafValues></_>
        <_>
          <internalNodes>
            0 -1 155 1.5291967429220676e-03</internalNodes>
          <leafValues>
            -1.6493183374404907e-01 6.5933960676193237e-01</leafValues></_>
        <_>
          <internalNodes>
            0 -1 72 -1.0042164474725723e-01</internalNodes>
          <leafValues>
            6.3279157876968384e-01 -1.2767900526523590e-01</leafValues></_>
        <_>
          <internalNodes>
            0 -1 1 -1.1933001875877380e-01</internalNodes>
          <leafValues>
            7.2054517269134521e-01 -1.4395317435264587e-01</leafValues></_>
        <_>
          <internalNodes>
            0 -1 218 8.5858930833637714e-04</internalNodes>
          <leafValues>
            -1.6718980669975281e-01 5.3791296482086182e-01</leafValues></_>
        <_>
          <internalNodes>
            0 -1 47 -1.9649969181045890e-04</internalNodes>
          <leafValues>
            -5.6720805168151855e-01 1.5798278152942657e-01</leafValues></_></weakClassifiers></_>
    <!-- stage 14 -->
    <_>
      <maxWeakCount>20</maxWeakCount>
      <stageThreshold>-1.2077716588973999e+00</stageThreshold>
      <weakClassifiers>
        <_>
          <internalNodes>
            0 -1 66 5.8271242305636406e-03</internalNodes>
          <leafValues>
            -2.2686025500297546e-01 5.0047665834426880e-01</leafValues></_>
        <_>
          <internalNodes>
            0 -1 254 2.3201750591397285e-03</internalNodes>
          <leafValues>
            -2.7574643492698669e-01 3.9757359027862549e-01</leafValues></_>
        <_>
          <internalNodes>
            0 -1 50 -5.0148239097325131e-05</internalNodes>
          <leafValues>
            2.1853551268577576e-01 -4.5178008079528809e-01</leafValues></_>
        <_>
          <internalNodes>
            0 -1 208 -1.3450996484607458e-03</internalNodes>
          <leafValues>
            -7.1475011110305786e-01 1.2153296172618866e-01</leafValues></_>
        <_>
          <internalNodes>
            0 -1 235 6.3092721393331885e-04</internalNodes>
          <leafValues>
            -3.0466967821121216e-01 3.1294858455657959e-01</leafValues></_>
        <_>
          <internalNodes>
            0 -1 108 1.5473408624529839e-02</internalNodes>
          <leafValues>
            1.1298973113298416e-01 -8.3507299423217773e-01</leafValues></_>
        <_>
          <internalNodes>
            0 -1 99 -1.3181915273889899e-03</internalNodes>
          <leafValues>
            4.5574307441711426e-01 -2.7120441198348999e-01</leafValues></_>
        <_>
          <internalNodes>
            0 -1 26 1.4026889402884990e-04</internalNodes>
          <leafValues>
            2.4644914269447327e-01 -4.2745101451873779e-01</leafValues></_>
        <_>
          <internalNodes>
            0 -1 52 -6.3022528775036335e-04</internalNodes>
          <leafValues>
            -6.9949823617935181e-01 1.4552271366119385e-01</leafValues></_>
        <_>
          <internalNodes>
            0 -1 243 -3.4150234423577785e-03</internalNodes>
          <leafValues>
            1.4899173378944397e-01 -5.7483637332916260e-01</leafValues></_>
        <_>
          <internalNodes>
            0 -1 4 1.8393483012914658e-02</internalNodes>
          <leafValues>
            -2.3454038798809052e-01 4.1356050968170166e-01</leafValues></_>
        <_>
          <internalNodes>
            0 -1 3 -1.6491720452904701e-02</internalNodes>
          <leafValues>
            7.1038448810577393e-01 -1.3278508186340332e-01</leafValues></_>
        <_>
          <internalNodes>
            0 -1 277 8.1599401310086250e-03</internalNodes>
          <leafValues>
            1.5465317666530609e-01 -7.0100522041320801e-01</leafValues></_>
        <_>
          <internalNodes>
            0 -1 239 4.8496816307306290e-03</internalNodes>
          <leafValues>
            -1.8044477701187134e-01 5.4912149906158447e-01</leafValues></_>
        <_>
          <internalNodes>
            0 -1 244 6.3303791648650076e-06</internalNodes>
          <leafValues>
            -2.4297916889190674e-01 3.7826737761497498e-01</leafValues></_>
        <_>
          <internalNodes>
            0 -1 27 -1.4748176909051836e-04</internalNodes>
          <leafValues>
            -4.6132841706275940e-01 2.0547826588153839e-01</leafValues></_>
        <_>
          <internalNodes>
            0 -1 162 2.2715902887284756e-03</internalNodes>
          <leafValues>
            -2.9892554879188538e-01 2.8965285420417786e-01</leafValues></_>
        <_>
          <internalNodes>
            0 -1 115 1.1919152457267046e-03</internalNodes>
          <leafValues>
            -3.0549547076225281e-01 2.9877656698226929e-01</leafValues></_>
        <_>
          <internalNodes>
            0 -1 142 1.2387326569296420e-04</internalNodes>
          <leafValues>
            1.9812630116939545e-01 -5.0966262817382812e-01</leafValues></_>
        <_>
          <internalNodes>
            0 -1 230 1.2547569349408150e-03</internalNodes>
          <leafValues>
            -1.8931581079959869e-01 5.8617001771926880e-01</leafValues></_></weakClassifiers></_>
    <!-- stage 15 -->
    <_>
      <maxWeakCount>20</maxWeakCount>
      <stageThreshold>-1.2114638090133667e+00</stageThreshold>
      <weakClassifiers>
        <_>
          <internalNodes>
            0 -1 126 2.1398554090410471e-03</internalNodes>
          <leafValues>
            -2.0754717290401459e-01 5.1229107379913330e-01</leafValues></_>
        <_>
          <internalNodes>
            0 -1 171 1.5760373789817095e-03</internalNodes>
          <leafValues>
            -1.8576626479625702e-01 5.5455839633941650e-01</leafValues></_>
        <_>
          <internalNodes>
            0 -1 23 1.2834256514906883e-02</internalNodes>
          <leafValues>
            -4.3176391720771790e-01 2.5105234980583191e-01</leafValues></_>
        <_>
          <internalNodes>
            0 -1 138 4.6358851250261068e-04</internalNodes>
          <leafValues>
            -4.6446248888969421e-01 2.1625083684921265e-01</leafValues></_>
        <_>
          <internalNodes>
            0 -1 94 1.6495345626026392e-03</internalNodes>
          <leafValues>
            -2.5136604905128479e-01 4.6321320533752441e-01</leafValues></_>
        <_>
          <internalNodes>
            0 -1 53 -6.5806647762656212e-03</internalNodes>
          <leafValues>
            -7.1401762962341309e-01 1.9103202223777771e-01</leafValues></_>
        <_>
          <internalNodes>
            0 -1 41 -1.3118455186486244e-02</internalNodes>
          <leafValues>
            -8.0246746540069580e-01 1.0119751095771790e-01</leafValues></_>
        <_>
          <internalNodes>
            0 -1 206 6.1943959444761276e-03</internalNodes>
          <leafValues>
            1.0292721539735794e-01 -7.0657372474670410e-01</leafValues></_>
        <_>
          <internalNodes>
            0 -1 171 -1.6682519344612956e-03</internalNodes>
          <leafValues>
            5.6127232313156128e-01 -2.1552395820617676e-01</leafValues></_>
        <_>
          <internalNodes>
            0 -1 265 1.2014136649668217e-02</internalNodes>
          <leafValues>
            -1.0425172746181488e-01 6.5504664182662964e-01</leafValues></_>
        <_>
          <internalNodes>
            0 -1 278 -5.0970859592780471e-04</internalNodes>
          <leafValues>
            -6.3078522682189941e-01 1.6772221028804779e-01</leafValues></_>
        <_>
          <internalNodes>
            0 -1 275 -5.2373493090271950e-03</internalNodes>
          <leafValues>
            5.4872006177902222e-01 -1.7406640946865082e-01</leafValues></_>
        <_>
          <internalNodes>
            0 -1 272 2.7786585269495845e-04</internalNodes>
          <leafValues>
            1.9164560735225677e-01 -4.5747694373130798e-01</leafValues></_>
        <_>
          <internalNodes>
            0 -1 225 -2.0158011466264725e-02</internalNodes>
          <leafValues>
            -6.9149732589721680e-01 1.1051351577043533e-01</leafValues></_>
        <_>
          <internalNodes>
            0 -1 268 2.4491290096193552e-03</internalNodes>
          <leafValues>
            -3.5662141442298889e-01 2.5113052129745483e-01</leafValues></_>
        <_>
          <internalNodes>
            0 -1 67 2.1757604554295540e-03</internalNodes>
          <leafValues>
            -2.9603445529937744e-01 3.1999346613883972e-01</leafValues></_>
        <_>
          <internalNodes>
            0 -1 116 8.0394709948450327e-04</internalNodes>
          <leafValues>
            1.0130962729454041e-01 -9.7364890575408936e-01</leafValues></_>
        <_>
          <internalNodes>
            0 -1 54 6.0406935517676175e-05</internalNodes>
          <leafValues>
            1.8983559310436249e-01 -4.1325822472572327e-01</leafValues></_>
        <_>
          <internalNodes>
            0 -1 159 9.9119800142943859e-04</internalNodes>
          <leafValues>
            -2.9119941592216492e-01 2.9544577002525330e-01</leafValues></_>
        <_>
          <internalNodes>
            0 -1 42 9.6432468853890896e-04</internalNodes>
          <leafValues>
            -1.2181616574525833e-01 7.2692066431045532e-01</leafValues></_></weakClassifiers></_>
    <!-- stage 16 -->
    <_>
      <maxWeakCount>22</maxWeakCount>
      <stageThreshold>-1.1024520397186279e+00</stageThreshold>
      <weakClassifiers>
        <_>
          <internalNodes>
            0 -1 49 -1.5252060256898403e-03</internalNodes>
          <leafValues>
            4.7493162751197815e-01 -2.4055665731430054e-01</leafValues></_>
        <_>
          <internalNodes>
            0 -1 121 -1.2270832434296608e-02</internalNodes>
          <leafValues>
            3.8851970434188843e-01 -2.3277813196182251e-01</leafValues></_>
        <_>
          <internalNodes>
            0 -1 163 5.9764741308754310e-05</internalNodes>
          <leafValues>
            -3.5491976141929626e-01 2.7051910758018494e-01</leafValues></_>
        <_>
          <internalNodes>
            0 -1 261 -3.2130158506333828e-03</internalNodes>
          <leafValues>
            1.7638187110424042e-01 -4.8098173737525940e-01</leafValues></_>
        <_>
          <internalNodes>
            0 -1 28 2.8116922825574875e-02</internalNodes>
          <leafValues>
            -1.4067749679088593e-01 6.6732656955718994e-01</leafValues></_>
        <_>
          <internalNodes>
            0 -1 103 -3.7349790334701538e-02</internalNodes>
          <leafValues>
            6.9052767753601074e-01 -1.3881959021091461e-01</leafValues></_>
        <_>
          <internalNodes>
            0 -1 151 1.4428594149649143e-03</internalNodes>
          <leafValues>
            -3.7767365574836731e-01 2.6555734872817993e-01</leafValues></_>
        <_>
          <internalNodes>
            0 -1 34 1.0406819637864828e-04</internalNodes>
          <leafValues>
            2.2511900961399078e-01 -4.3906596302986145e-01</leafValues></_>
        <_>
          <internalNodes>
            0 -1 55 3.7515321746468544e-03</internalNodes>
          <leafValues>
            1.1357430368661880e-01 -7.7647942304611206e-01</leafValues></_>
        <_>
          <internalNodes>
            0 -1 148 3.1856429995968938e-04</internalNodes>
          <leafValues>
            -5.0801569223403931e-01 1.5665394067764282e-01</leafValues></_>
        <_>
          <internalNodes>
            0 -1 134 9.3279988504946232e-04</internalNodes>
          <leafValues>
            -2.8055617213249207e-01 2.9510894417762756e-01</leafValues></_>
        <_>
          <internalNodes>
            0 -1 51 8.4746898210141808e-05</internalNodes>
          <leafValues>
            2.0356324315071106e-01 -4.7490766644477844e-01</leafValues></_>
        <_>
          <internalNodes>
            0 -1 22 -2.7980309096165001e-04</internalNodes>
          <leafValues>
            -4.9472552537918091e-01 1.7969457805156708e-01</leafValues></_>
        <_>
          <internalNodes>
            0 -1 9 -9.9484892562031746e-03</internalNodes>
          <leafValues>
            6.5305912494659424e-01 -1.5203690528869629e-01</leafValues></_>
        <_>
          <internalNodes>
            0 -1 111 4.3191836448386312e-04</internalNodes>
          <leafValues>
            -2.9759937524795532e-01 2.8115773200988770e-01</leafValues></_>
        <_>
          <internalNodes>
            0 -1 214 1.2030052021145821e-02</internalNodes>
          <leafValues>
            1.1714998632669449e-01 -7.1887755393981934e-01</leafValues></_>
        <_>
          <internalNodes>
            0 -1 19 4.8308753967285156e-01</internalNodes>
          <leafValues>
            -1.6101916134357452e-01 6.1334216594696045e-01</leafValues></_>
        <_>
          <internalNodes>
            0 -1 5 -2.8678691387176514e-01</internalNodes>
          <leafValues>
            5.8645963668823242e-01 -1.4338843524456024e-01</leafValues></_>
        <_>
          <internalNodes>
            0 -1 20 -4.5322105288505554e-02</internalNodes>
          <leafValues>
            -7.7160835266113281e-01 1.4078404009342194e-01</leafValues></_>
        <_>
          <internalNodes>
            0 -1 258 -1.2935316190123558e-03</internalNodes>
          <leafValues>
            6.9214355945587158e-01 -1.5371190011501312e-01</leafValues></_>
        <_>
          <internalNodes>
            0 -1 156 1.5476298285648227e-03</internalNodes>
          <leafValues>
            -2.4279804527759552e-01 3.4883120656013489e-01</leafValues></_>
        <_>
          <internalNodes>
            0 -1 165 1.1249262606725097e-03</internalNodes>
          <leafValues>
            -3.4953141212463379e-01 2.6709330081939697e-01</leafValues></_></weakClassifiers></_>
    <!-- stage 17 -->
    <_>
      <maxWeakCount>21</maxWeakCount>
      <stageThreshold>-1.0436508655548096e+00</stageThreshold>
      <weakClassifiers>
        <_>
          <internalNodes>
            0 -1 196 -6.0346676036715508e-03</internalNodes>
          <leafValues>
            -5.0892859697341919e-01 3.7354651093482971e-01</leafValues></_>
        <_>
          <internalNodes>
            0 -1 195 4.5703211799263954e-03</internalNodes>
          <leafValues>
            -2.3731681704521179e-01 4.0659970045089722e-01</leafValues></_>
        <_>
          <internalNodes>
            0 -1 88 -1.2169186957180500e-03</internalNodes>
          <leafValues>
            5.6033599376678467e-01 -1.6143412888050079e-01</leafValues></_>
        <_>
          <internalNodes>
            0 -1 144 4.6093901619315147e-03</internalNodes>
          <leafValues>
            -2.3287959396839142e-01 4.4056800007820129e-01</leafValues></_>
        <_>
          <internalNodes>
            0 -1 120 7.5795995071530342e-03</internalNodes>
          <leafValues>
            -3.1569349765777588e-01 3.3047634363174438e-01</leafValues></_>
        <_>
          <internalNodes>
            0 -1 117 1.9609867595136166e-03</internalNodes>
          <leafValues>
            -3.7858498096466064e-01 2.3707422614097595e-01</leafValues></_>
        <_>
          <internalNodes>
            0 -1 251 3.6189504899084568e-03</internalNodes>
          <leafValues>
            -5.8957618474960327e-01 1.7189592123031616e-01</leafValues></_>
        <_>
          <internalNodes>
            0 -1 158 5.8923091273754835e-04</internalNodes>
          <leafValues>
            -2.9940402507781982e-01 2.8924295306205750e-01</leafValues></_>
        <_>
          <internalNodes>
            0 -1 267 1.2615399900823832e-03</internalNodes>
          <leafValues>
            -1.1179199069738388e-01 7.8849619626998901e-01</leafValues></_>
        <_>
          <internalNodes>
            0 -1 204 2.1401382982730865e-03</internalNodes>
          <leafValues>
            1.6167588531970978e-01 -5.7602816820144653e-01</leafValues></_>
        <_>
          <internalNodes>
            0 -1 130 1.1806371621787548e-03</internalNodes>
          <leafValues>
            -2.4543684720993042e-01 3.2163128256797791e-01</leafValues></_>
        <_>
          <internalNodes>
            0 -1 43 -6.0194395482540131e-02</internalNodes>
          <leafValues>
            -9.7468608617782593e-01 8.6146757006645203e-02</leafValues></_>
        <_>
          <internalNodes>
            0 -1 109 5.9964645515719894e-06</internalNodes>
          <leafValues>
            -3.4434035420417786e-01 2.1606016159057617e-01</leafValues></_>
        <_>
          <internalNodes>
            0 -1 212 -7.1099319029599428e-05</internalNodes>
          <leafValues>
            -3.9222407341003418e-01 2.0577073097229004e-01</leafValues></_>
        <_>
          <internalNodes>
            0 -1 211 1.0262258001603186e-04</internalNodes>
          <leafValues>
            1.5747803449630737e-01 -5.0774383544921875e-01</leafValues></_>
        <_>
          <internalNodes>
            0 -1 220 -7.6505780452862382e-04</internalNodes>
          <leafValues>
            5.5656862258911133e-01 -1.4626510441303253e-01</leafValues></_>
        <_>
          <internalNodes>
            0 -1 202 9.2300085816532373e-04</internalNodes>
          <leafValues>
            -2.3426799476146698e-01 3.9453035593032837e-01</leafValues></_>
        <_>
          <internalNodes>
            0 -1 229 -1.0804365389049053e-02</internalNodes>
          <leafValues>
            -7.0672070980072021e-01 1.2916649878025055e-01</leafValues></_>
        <_>
          <internalNodes>
            0 -1 70 2.8373426757752895e-03</internalNodes>
          <leafValues>
            1.1287357658147812e-01 -6.5541303157806396e-01</leafValues></_>
        <_>
          <internalNodes>
            0 -1 75 1.1375987902283669e-02</internalNodes>
          <leafValues>
            -2.3083943128585815e-01 3.3651742339134216e-01</leafValues></_>
        <_>
          <internalNodes>
            0 -1 38 -2.4233590811491013e-02</internalNodes>
          <leafValues>
            -8.0840063095092773e-01 9.6100054681301117e-02</leafValues></_></weakClassifiers></_>
    <!-- stage 18 -->
    <_>
      <maxWeakCount>22</maxWeakCount>
      <stageThreshold>-1.0150064229965210e+00</stageThreshold>
      <weakClassifiers>
        <_>
          <internalNodes>
            0 -1 169 -3.9123259484767914e-03</internalNodes>
          <leafValues>
            5.9200000762939453e-01 -5.1764704287052155e-02</leafValues></_>
        <_>
          <internalNodes>
            0 -1 172 4.9941176548600197e-03</internalNodes>
          <leafValues>
            -2.2645688056945801e-01 3.5488086938858032e-01</leafValues></_>
        <_>
          <internalNodes>
            0 -1 136 1.7100074328482151e-03</internalNodes>
          <leafValues>
            -4.2334210872650146e-01 2.0646329224109650e-01</leafValues></_>
        <_>
          <internalNodes>
            0 -1 36 -1.1986048892140388e-02</internalNodes>
          <leafValues>
            -7.4892765283584595e-01 9.1525450348854065e-02</leafValues></_>
        <_>
          <internalNodes>
            0 -1 64 1.9510837737470865e-03</internalNodes>
          <leafValues>
            -2.7741873264312744e-01 3.0608886480331421e-01</leafValues></_>
        <_>
          <internalNodes>
            0 -1 30 1.6132952645421028e-02</internalNodes>
          <leafValues>
            -1.6966353356838226e-01 5.5192214250564575e-01</leafValues></_>
        <_>
          <internalNodes>
            0 -1 145 -3.6811344325542450e-03</internalNodes>
          <leafValues>
            4.3696111440658569e-01 -1.8688827753067017e-01</leafValues></_>
        <_>
          <internalNodes>
            0 -1 160 -5.6128585711121559e-03</internalNodes>
          <leafValues>
            1.5434198081493378e-01 -7.1831232309341431e-01</leafValues></_>
        <_>
          <internalNodes>
            0 -1 112 1.3567741960287094e-02</internalNodes>
          <leafValues>
            5.2071265876293182e-02 -8.3381319046020508e-01</leafValues></_>
        <_>
          <internalNodes>
            0 -1 48 1.1782108340412378e-03</internalNodes>
          <leafValues>
            -2.8376340866088867e-01 3.0842179059982300e-01</leafValues></_>
        <_>
          <internalNodes>
            0 -1 10 3.4833252429962158e-02</internalNodes>
          <leafValues>
            -2.0462119579315186e-01 3.9725700020790100e-01</leafValues></_>
        <_>
          <internalNodes>
            0 -1 228 2.5280327536165714e-03</internalNodes>
          <leafValues>
            -9.9530510604381561e-02 8.3142411708831787e-01</leafValues></_>
        <_>
          <internalNodes>
            0 -1 249 3.2412335276603699e-02</internalNodes>
          <leafValues>
            -9.9437221884727478e-02 6.4097797870635986e-01</leafValues></_>
        <_>
          <internalNodes>
            0 -1 34 -1.5811173943802714e-04</internalNodes>
          <leafValues>
            -5.4143017530441284e-01 1.6635523736476898e-01</leafValues></_>
        <_>
          <internalNodes>
            0 -1 34 1.3160909293219447e-04</internalNodes>
          <leafValues>
            1.8319587409496307e-01 -4.7678658366203308e-01</leafValues></_>
        <_>
          <internalNodes>
            0 -1 16 1.5436228364706039e-02</internalNodes>
          <leafValues>
            -1.9488741457462311e-01 4.8104336857795715e-01</leafValues></_>
        <_>
          <internalNodes>
            0 -1 276 1.3519804633688182e-04</internalNodes>
          <leafValues>
            1.9139994680881500e-01 -4.3617185950279236e-01</leafValues></_>
        <_>
          <internalNodes>
            0 -1 31 -6.8431263789534569e-03</internalNodes>
          <leafValues>
            5.0747835636138916e-01 -1.6681616008281708e-01</leafValues></_>
        <_>
          <internalNodes>
            0 -1 256 7.0925825275480747e-04</internalNodes>
          <leafValues>
            -1.9804652035236359e-01 4.0225398540496826e-01</leafValues></_>
        <_>
          <internalNodes>
            0 -1 131 -6.0643879696726799e-03</internalNodes>
          <leafValues>
            -6.3115191459655762e-01 1.3465365767478943e-01</leafValues></_>
        <_>
          <internalNodes>
            0 -1 174 2.2205309942364693e-03</internalNodes>
          <leafValues>
            -1.2942184507846832e-01 6.3341408967971802e-01</leafValues></_>
        <_>
          <internalNodes>
            0 -1 110 1.0304307565093040e-02</internalNodes>
          <leafValues>
            1.3993731141090393e-01 -6.8968516588211060e-01</leafValues></_></weakClassifiers></_>
    <!-- stage 19 -->
    <_>
      <maxWeakCount>23</maxWeakCount>
      <stageThreshold>-1.1659951210021973e+00</stageThreshold>
      <weakClassifiers>
        <_>
          <internalNodes>
            0 -1 242 1.0371101088821888e-02</internalNodes>
          <leafValues>
            -8.1012658774852753e-02 5.7283949851989746e-01</leafValues></_>
        <_>
          <internalNodes>
            0 -1 91 -5.0496240146458149e-03</internalNodes>
          <leafValues>
            6.1052221059799194e-01 -1.0406819730997086e-01</leafValues></_>
        <_>
          <internalNodes>
            0 -1 175 7.8976672375574708e-04</internalNodes>
          <leafValues>
            -2.1204629540443420e-01 5.3596705198287964e-01</leafValues></_>
        <_>
          <internalNodes>
            0 -1 135 -2.5158317759633064e-02</internalNodes>
          <leafValues>
            -7.8799569606781006e-01 1.4846353232860565e-01</leafValues></_>
        <_>
          <internalNodes>
            0 -1 107 1.8759638071060181e-02</internalNodes>
          <leafValues>
            -5.0882983207702637e-01 1.6989843547344208e-01</leafValues></_>
        <_>
          <internalNodes>
            0 -1 57 -1.6013560816645622e-02</internalNodes>
          <leafValues>
            2.1656379103660583e-01 -3.6645931005477905e-01</leafValues></_>
        <_>
          <internalNodes>
            0 -1 84 3.4667267464101315e-03</internalNodes>
          <leafValues>
            -1.2720225751399994e-01 6.6363692283630371e-01</leafValues></_>
        <_>
          <internalNodes>
            0 -1 255 1.3050537381786853e-04</internalNodes>
          <leafValues>
            2.4702507257461548e-01 -3.3437794446945190e-01</leafValues></_>
        <_>
          <internalNodes>
            0 -1 137 7.5864532846026123e-05</internalNodes>
          <leafValues>
            -3.3212935924530029e-01 2.3109206557273865e-01</leafValues></_>
        <_>
          <internalNodes>
            0 -1 161 5.4739986080676317e-04</internalNodes>
          <leafValues>
            -2.9699590802192688e-01 2.7492001652717590e-01</leafValues></_>
        <_>
          <internalNodes>
            0 -1 200 1.2023029848933220e-03</internalNodes>
          <leafValues>
            -1.1880826205015182e-01 6.9731169939041138e-01</leafValues></_>
        <_>
          <internalNodes>
            0 -1 262 2.4459240958094597e-02</internalNodes>
          <leafValues>
            -1.5363484621047974e-01 5.3051632642745972e-01</leafValues></_>
        <_>
          <internalNodes>
            0 -1 13 -6.4401030540466309e-03</internalNodes>
          <leafValues>
            -6.0279065370559692e-01 1.5732905268669128e-01</leafValues></_>
        <_>
          <internalNodes>
            0 -1 183 -1.3433583080768585e-02</internalNodes>
          <leafValues>
            -7.6477551460266113e-01 9.8676763474941254e-02</leafValues></_>
        <_>
          <internalNodes>
            0 -1 223 -1.1450696911197156e-04</internalNodes>
          <leafValues>
            -4.2021146416664124e-01 1.8710429966449738e-01</leafValues></_>
        <_>
          <internalNodes>
            0 -1 187 7.3304443503729999e-05</internalNodes>
          <leafValues>
            -4.0690550208091736e-01 2.0362152159214020e-01</leafValues></_>
        <_>
          <internalNodes>
            0 -1 129 -2.6998410467058420e-03</internalNodes>
          <leafValues>
            7.6040381193161011e-01 -1.0756731033325195e-01</leafValues></_>
        <_>
          <internalNodes>
            0 -1 6 1.2176683172583580e-02</internalNodes>
          <leafValues>
            -1.0440293699502945e-01 6.4999932050704956e-01</leafValues></_>
        <_>
          <internalNodes>
            0 -1 232 1.6080640489235520e-04</internalNodes>
          <leafValues>
            1.9318717718124390e-01 -4.4512426853179932e-01</leafValues></_>
        <_>
          <internalNodes>
            0 -1 232 -1.5786234871484339e-04</internalNodes>
          <leafValues>
            -4.8233085870742798e-01 1.6836418211460114e-01</leafValues></_>
        <_>
          <internalNodes>
            0 -1 233 9.7592093516141176e-04</internalNodes>
          <leafValues>
            -2.3049251735210419e-01 3.4916335344314575e-01</leafValues></_>
        <_>
          <internalNodes>
            0 -1 181 1.3795504346489906e-03</internalNodes>
          <leafValues>
            1.5176464617252350e-01 -6.4666604995727539e-01</leafValues></_>
        <_>
          <internalNodes>
            0 -1 163 5.7006600400200114e-06</internalNodes>
          <leafValues>
            -3.9746272563934326e-01 1.9879850745201111e-01</leafValues></_></weakClassifiers></_></stages>
  <features>
    <_>
      <rects>
        <_>
          0 0 10 22 -1.</_>
        <_>
          0 0 5 11 2.</_>
        <_>
          5 11 5 11 2.</_></rects>
      <tilted>0</tilted></_>
    <_>
      <rects>
        <_>
          0 1 24 44 -1.</_>
        <_>
          6 1 12 44 2.</_></rects>
      <tilted>0</tilted></_>
    <_>
      <rects>
        <_>
          0 2 24 45 -1.</_>
        <_>
          8 17 8 15 9.</_></rects>
      <tilted>0</tilted></_>
    <_>
      <rects>
        <_>
          0 5 6 17 -1.</_>
        <_>
          3 5 3 17 2.</_></rects>
      <tilted>0</tilted></_>
    <_>
      <rects>
        <_>
          0 9 6 17 -1.</_>
        <_>
          3 9 3 17 2.</_></rects>
      <tilted>0</tilted></_>
    <_>
      <rects>
        <_>
          0 9 24 36 -1.</_>
        <_>
          8 21 8 12 9.</_></rects>
      <tilted>0</tilted></_>
    <_>
      <rects>
        <_>
          0 11 4 22 -1.</_>
        <_>
          0 11 2 11 2.</_>
        <_>
          2 22 2 11 2.</_></rects>
      <tilted>0</tilted></_>
    <_>
      <rects>
        <_>
          0 11 6 13 -1.</_>
        <_>
          3 11 3 13 2.</_></rects>
      <tilted>0</tilted></_>
    <_>
      <rects>
        <_>
          0 11 16 34 -1.</_>
        <_>
          0 11 8 17 2.</_>
        <_>
          8 28 8 17 2.</_></rects>
      <tilted>0</tilted></_>
    <_>
      <rects>
        <_>
          0 13 4 18 -1.</_>
        <_>
          0 13 2 9 2.</_>
        <_>
          2 22 2 9 2.</_></rects>
      <tilted>0</tilted></_>
    <_>
      <rects>
        <_>
          0 13 22 28 -1.</_>
        <_>
          11 13 11 28 2.</_></rects>
      <tilted>0</tilted></_>
    <_>
      <rects>
        <_>
          0 14 6 7 -1.</_>
        <_>
          3 14 3 7 2.</_></rects>
      <tilted>0</tilted></_>
    <_>
      <rects>
        <_>
          0 14 12 34 -1.</_>
        <_>
          0 14 6 17 2.</_>
        <_>
          6 31 6 17 2.</_></rects>
      <tilted>0</tilted></_>
    <_>
      <rects>
        <_>
          0 14 21 9 -1.</_>
        <_>
          0 17 21 3 3.</_></rects>
      <tilted>0</tilted></_>
    <_>
      <rects>
        <_>
          0 15 24 17 -1.</_>
        <_>
          6 15 12 17 2.</_></rects>
      <tilted>0</tilted></_>
    <_>
      <rects>
        <_>
          0 21 12 6 -1.</_>
        <_>
          3 21 6 6 2.</_></rects>
      <tilted>0</tilted></_>
    <_>
      <rects>
        <_>
          0 24 8 9 -1.</_>
        <_>
          4 24 4 9 2.</_></rects>
      <tilted>0</tilted></_>
    <_>
      <rects>
        <_>
          1 3 2 2 -1.</_>
        <_>
          2 3 1 2 2.</_></rects>
      <tilted>0</tilted></_>
    <_>
      <rects>
        <_>
          2 0 1 2 -1.</_>
        <_>
          2 1 1 1 2.</_></rects>
      <tilted>0</tilted></_>
    <_>
      <rects>
        <_>
          3 4 21 42 -1.</_>
        <_>
          10 18 7 14 9.</_></rects>
      <tilted>0</tilted></_>
    <_>
      <rects>
        <_>
          3 10 15 24 -1.</_>
        <_>
          8 18 5 8 9.</_></rects>
      <tilted>0</tilted></_>
    <_>
      <rects>
        <_>
          3 17 18 5 -1.</_>
        <_>
          9 17 6 5 3.</_></rects>
      <tilted>0</tilted></_>
    <_>
      <rects>
        <_>
          4 0 2 1 -1.</_>
        <_>
          4 0 1 1 2.</_></rects>
      <tilted>1</tilted></_>
    <_>
      <rects>
        <_>
          4 9 15 2 -1.</_>
        <_>
          9 14 5 2 3.</_></rects>
      <tilted>1</tilted></_>
    <_>
      <rects>
        <_>
          4 21 12 7 -1.</_>
        <_>
          7 21 6 7 2.</_></rects>
      <tilted>0</tilted></_>
    <_>
      <rects>
        <_>
          4 22 6 2 -1.</_>
        <_>
          6 22 2 2 3.</_></rects>
      <tilted>0</tilted></_>
    <_>
      <rects>
        <_>
          4 25 2 1 -1.</_>
        <_>
          5 25 1 1 2.</_></rects>
      <tilted>0</tilted></_>
    <_>
      <rects>
        <_>
          4 25 1 2 -1.</_>
        <_>
          4 26 1 1 2.</_></rects>
      <tilted>0</tilted></_>
    <_>
      <rects>
        <_>
          5 0 8 5 -1.</_>
        <_>
          5 0 4 5 2.</_></rects>
      <tilted>1</tilted></_>
    <_>
      <rects>
        <_>
          5 5 11 33 -1.</_>
        <_>
          5 16 11 11 3.</_></rects>
      <tilted>0</tilted></_>
    <_>
      <rects>
        <_>
          5 20 12 3 -1.</_>
        <_>
          9 21 4 1 9.</_></rects>
      <tilted>0</tilted></_>
    <_>
      <rects>
        <_>
          5 21 15 1 -1.</_>
        <_>
          10 21 5 1 3.</_></rects>
      <tilted>0</tilted></_>
    <_>
      <rects>
        <_>
          5 22 9 9 -1.</_>
        <_>
          8 25 3 3 9.</_></rects>
      <tilted>0</tilted></_>
    <_>
      <rects>
        <_>
          5 22 12 6 -1.</_>
        <_>
          8 22 6 6 2.</_></rects>
      <tilted>0</tilted></_>
    <_>
      <rects>
        <_>
          5 24 2 1 -1.</_>
        <_>
          6 24 1 1 2.</_></rects>
      <tilted>0</tilted></_>
    <_>
      <rects>
        <_>
          5 25 2 1 -1.</_>
        <_>
          6 25 1 1 2.</_></rects>
      <tilted>0</tilted></_>
    <_>
      <rects>
        <_>
          5 26 12 5 -1.</_>
        <_>
          9 26 4 5 3.</_></rects>
      <tilted>0</tilted></_>
    <_>
      <rects>
        <_>
          6 6 15 4 -1.</_>
        <_>
          11 11 5 4 3.</_></rects>
      <tilted>1</tilted></_>
    <_>
      <rects>
        <_>
          6 10 9 16 -1.</_>
        <_>
          9 10 3 16 3.</_></rects>
      <tilted>0</tilted></_>
    <_>
      <rects>
        <_>
          6 11 12 24 -1.</_>
        <_>
          10 19 4 8 9.</_></rects>
      <tilted>0</tilted></_>
    <_>
      <rects>
        <_>
          6 11 8 22 -1.</_>
        <_>
          6 22 8 11 2.</_></rects>
      <tilted>0</tilted></_>
    <_>
      <rects>
        <_>
          6 16 3 12 -1.</_>
        <_>
          6 22 3 6 2.</_></rects>
      <tilted>0</tilted></_>
    <_>
      <rects>
        <_>
          6 17 2 2 -1.</_>
        <_>
          6 17 1 1 2.</_>
        <_>
          7 18 1 1 2.</_></rects>
      <tilted>0</tilted></_>
    <_>
      <rects>
        <_>
          6 17 17 8 -1.</_>
        <_>
          6 21 17 4 2.</_></rects>
      <tilted>0</tilted></_>
    <_>
      <rects>
        <_>
          6 22 4 3 -1.</_>
        <_>
          8 22 2 3 2.</_></rects>
      <tilted>0</tilted></_>
    <_>
      <rects>
        <_>
          6 22 12 9 -1.</_>
        <_>
          9 22 6 9 2.</_></rects>
      <tilted>0</tilted></_>
    <_>
      <rects>
        <_>
          6 22 10 9 -1.</_>
        <_>
          11 22 5 9 2.</_></rects>
      <tilted>0</tilted></_>
    <_>
      <rects>
        <_>
          6 23 2 1 -1.</_>
        <_>
          7 23 1 1 2.</_></rects>
      <tilted>0</tilted></_>
    <_>
      <rects>
        <_>
          6 23 4 4 -1.</_>
        <_>
          7 23 2 4 2.</_></rects>
      <tilted>0</tilted></_>
    <_>
      <rects>
        <_>
          6 23 6 2 -1.</_>
        <_>
          8 23 2 2 3.</_></rects>
      <tilted>0</tilted></_>
    <_>
      <rects>
        <_>
          6 23 8 3 -1.</_>
        <_>
          8 23 4 3 2.</_></rects>
      <tilted>0</tilted></_>
    <_>
      <rects>
        <_>
          6 24 2 1 -1.</_>
        <_>
          7 24 1 1 2.</_></rects>
      <tilted>0</tilted></_>
    <_>
      <rects>
        <_>
          6 24 1 2 -1.</_>
        <_>
          6 24 1 1 2.</_></rects>
      <tilted>1</tilted></_>
    <_>
      <rects>
        <_>
          6 24 8 4 -1.</_>
        <_>
          10 24 4 4 2.</_></rects>
      <tilted>0</tilted></_>
    <_>
      <rects>
        <_>
          6 25 2 1 -1.</_>
        <_>
          7 25 1 1 2.</_></rects>
      <tilted>0</tilted></_>
    <_>
      <rects>
        <_>
          6 26 8 3 -1.</_>
        <_>
          10 26 4 3 2.</_></rects>
      <tilted>0</tilted></_>
    <_>
      <rects>
        <_>
          6 27 9 18 -1.</_>
        <_>
          6 33 9 6 3.</_></rects>
      <tilted>0</tilted></_>
    <_>
      <rects>
        <_>
          6 28 13 15 -1.</_>
        <_>
          6 33 13 5 3.</_></rects>
      <tilted>0</tilted></_>
    <_>
      <rects>
        <_>
          7 13 9 4 -1.</_>
        <_>
          10 16 3 4 3.</_></rects>
      <tilted>1</tilted></_>
    <_>
      <rects>
        <_>
          7 14 3 3 -1.</_>
        <_>
          8 15 1 1 9.</_></rects>
      <tilted>0</tilted></_>
    <_>
      <rects>
        <_>
          7 17 3 3 -1.</_>
        <_>
          8 18 1 1 9.</_></rects>
      <tilted>0</tilted></_>
    <_>
      <rects>
        <_>
          7 19 6 6 -1.</_>
        <_>
          10 19 3 6 2.</_></rects>
      <tilted>0</tilted></_>
    <_>
      <rects>
        <_>
          7 20 6 7 -1.</_>
        <_>
          10 20 3 7 2.</_></rects>
      <tilted>0</tilted></_>
    <_>
      <rects>
        <_>
          7 20 12 6 -1.</_>
        <_>
          13 20 6 6 2.</_></rects>
      <tilted>0</tilted></_>
    <_>
      <rects>
        <_>
          7 21 3 3 -1.</_>
        <_>
          8 22 1 1 9.</_></rects>
      <tilted>0</tilted></_>
    <_>
      <rects>
        <_>
          7 21 12 1 -1.</_>
        <_>
          10 21 6 1 2.</_></rects>
      <tilted>0</tilted></_>
    <_>
      <rects>
        <_>
          7 21 6 9 -1.</_>
        <_>
          7 24 6 3 3.</_></rects>
      <tilted>0</tilted></_>
    <_>
      <rects>
        <_>
          7 22 3 3 -1.</_>
        <_>
          8 23 1 1 9.</_></rects>
      <tilted>0</tilted></_>
    <_>
      <rects>
        <_>
          7 23 4 3 -1.</_>
        <_>
          8 23 2 3 2.</_></rects>
      <tilted>0</tilted></_>
    <_>
      <rects>
        <_>
          7 23 3 5 -1.</_>
        <_>
          8 23 1 5 3.</_></rects>
      <tilted>0</tilted></_>
    <_>
      <rects>
        <_>
          7 23 2 3 -1.</_>
        <_>
          6 24 2 1 3.</_></rects>
      <tilted>1</tilted></_>
    <_>
      <rects>
        <_>
          7 24 3 3 -1.</_>
        <_>
          8 25 1 1 9.</_></rects>
      <tilted>0</tilted></_>
    <_>
      <rects>
        <_>
          7 24 11 24 -1.</_>
        <_>
          7 36 11 12 2.</_></rects>
      <tilted>0</tilted></_>
    <_>
      <rects>
        <_>
          7 25 7 10 -1.</_>
        <_>
          7 30 7 5 2.</_></rects>
      <tilted>0</tilted></_>
    <_>
      <rects>
        <_>
          7 28 12 16 -1.</_>
        <_>
          7 32 12 8 2.</_></rects>
      <tilted>0</tilted></_>
    <_>
      <rects>
        <_>
          8 2 11 18 -1.</_>
        <_>
          8 8 11 6 3.</_></rects>
      <tilted>0</tilted></_>
    <_>
      <rects>
        <_>
          8 10 15 5 -1.</_>
        <_>
          13 15 5 5 3.</_></rects>
      <tilted>1</tilted></_>
    <_>
      <rects>
        <_>
          8 14 9 24 -1.</_>
        <_>
          8 26 9 12 2.</_></rects>
      <tilted>0</tilted></_>
    <_>
      <rects>
        <_>
          8 15 3 3 -1.</_>
        <_>
          9 16 1 1 9.</_></rects>
      <tilted>0</tilted></_>
    <_>
      <rects>
        <_>
          8 16 3 3 -1.</_>
        <_>
          9 17 1 1 9.</_></rects>
      <tilted>0</tilted></_>
    <_>
      <rects>
        <_>
          8 16 2 4 -1.</_>
        <_>
          8 16 1 2 2.</_>
        <_>
          9 18 1 2 2.</_></rects>
      <tilted>0</tilted></_>
    <_>
      <rects>
        <_>
          8 19 6 7 -1.</_>
        <_>
          11 19 3 7 2.</_></rects>
      <tilted>0</tilted></_>
    <_>
      <rects>
        <_>
          8 20 3 3 -1.</_>
        <_>
          9 21 1 1 9.</_></rects>
      <tilted>0</tilted></_>
    <_>
      <rects>
        <_>
          8 21 3 3 -1.</_>
        <_>
          9 22 1 1 9.</_></rects>
      <tilted>0</tilted></_>
    <_>
      <rects>
        <_>
          8 22 2 4 -1.</_>
        <_>
          8 22 1 2 2.</_>
        <_>
          9 24 1 2 2.</_></rects>
      <tilted>0</tilted></_>
    <_>
      <rects>
        <_>
          8 23 2 2 -1.</_>
        <_>
          8 23 1 1 2.</_>
        <_>
          9 24 1 1 2.</_></rects>
      <tilted>0</tilted></_>
    <_>
      <rects>
        <_>
          8 23 8 3 -1.</_>
        <_>
          10 23 4 3 2.</_></rects>
      <tilted>0</tilted></_>
    <_>
      <rects>
        <_>
          8 23 6 10 -1.</_>
        <_>
          11 23 3 10 2.</_></rects>
      <tilted>0</tilted></_>
    <_>
      <rects>
        <_>
          8 24 2 1 -1.</_>
        <_>
          9 24 1 1 2.</_></rects>
      <tilted>0</tilted></_>
    <_>
      <rects>
        <_>
          8 24 3 1 -1.</_>
        <_>
          9 24 1 1 3.</_></rects>
      <tilted>0</tilted></_>
    <_>
      <rects>
        <_>
          8 24 2 2 -1.</_>
        <_>
          8 24 1 1 2.</_>
        <_>
          9 25 1 1 2.</_></rects>
      <tilted>0</tilted></_>
    <_>
      <rects>
        <_>
          8 24 3 2 -1.</_>
        <_>
          9 24 1 2 3.</_></rects>
      <tilted>0</tilted></_>
    <_>
      <rects>
        <_>
          8 25 3 1 -1.</_>
        <_>
          9 25 1 1 3.</_></rects>
      <tilted>0</tilted></_>
    <_>
      <rects>
        <_>
          8 25 3 3 -1.</_>
        <_>
          9 26 1 1 9.</_></rects>
      <tilted>0</tilted></_>
    <_>
      <rects>
        <_>
          8 25 3 2 -1.</_>
        <_>
          9 25 1 2 3.</_></rects>
      <tilted>0</tilted></_>
    <_>
      <rects>
        <_>
          8 25 4 2 -1.</_>
        <_>
          9 25 2 2 2.</_></rects>
      <tilted>0</tilted></_>
    <_>
      <rects>
        <_>
          8 25 4 4 -1.</_>
        <_>
          9 25 2 4 2.</_></rects>
      <tilted>0</tilted></_>
    <_>
      <rects>
        <_>
          8 25 6 12 -1.</_>
        <_>
          8 31 6 6 2.</_></rects>
      <tilted>0</tilted></_>
    <_>
      <rects>
        <_>
          8 26 3 1 -1.</_>
        <_>
          9 26 1 1 3.</_></rects>
      <tilted>0</tilted></_>
    <_>
      <rects>
        <_>
          8 26 4 1 -1.</_>
        <_>
          9 26 2 1 2.</_></rects>
      <tilted>0</tilted></_>
    <_>
      <rects>
        <_>
          8 26 3 3 -1.</_>
        <_>
          9 27 1 1 9.</_></rects>
      <tilted>0</tilted></_>
    <_>
      <rects>
        <_>
          8 26 3 2 -1.</_>
        <_>
          9 26 1 2 3.</_></rects>
      <tilted>0</tilted></_>
    <_>
      <rects>
        <_>
          8 26 9 9 -1.</_>
        <_>
          11 29 3 3 9.</_></rects>
      <tilted>0</tilted></_>
    <_>
      <rects>
        <_>
          9 3 6 8 -1.</_>
        <_>
          9 3 3 8 2.</_></rects>
      <tilted>1</tilted></_>
    <_>
      <rects>
        <_>
          9 5 6 20 -1.</_>
        <_>
          9 10 6 10 2.</_></rects>
      <tilted>0</tilted></_>
    <_>
      <rects>
        <_>
          9 6 6 21 -1.</_>
        <_>
          9 13 6 7 3.</_></rects>
      <tilted>0</tilted></_>
    <_>
      <rects>
        <_>
          9 6 8 21 -1.</_>
        <_>
          9 13 8 7 3.</_></rects>
      <tilted>0</tilted></_>
    <_>
      <rects>
        <_>
          9 8 7 18 -1.</_>
        <_>
          9 14 7 6 3.</_></rects>
      <tilted>0</tilted></_>
    <_>
      <rects>
        <_>
          9 12 6 23 -1.</_>
        <_>
          12 12 3 23 2.</_></rects>
      <tilted>0</tilted></_>
    <_>
      <rects>
        <_>
          9 13 3 3 -1.</_>
        <_>
          10 14 1 1 9.</_></rects>
      <tilted>0</tilted></_>
    <_>
      <rects>
        <_>
          9 13 6 19 -1.</_>
        <_>
          12 13 3 19 2.</_></rects>
      <tilted>0</tilted></_>
    <_>
      <rects>
        <_>
          9 14 3 3 -1.</_>
        <_>
          10 15 1 1 9.</_></rects>
      <tilted>0</tilted></_>
    <_>
      <rects>
        <_>
          9 14 8 9 -1.</_>
        <_>
          11 14 4 9 2.</_></rects>
      <tilted>0</tilted></_>
    <_>
      <rects>
        <_>
          9 16 7 10 -1.</_>
        <_>
          9 21 7 5 2.</_></rects>
      <tilted>0</tilted></_>
    <_>
      <rects>
        <_>
          9 17 3 3 -1.</_>
        <_>
          10 18 1 1 9.</_></rects>
      <tilted>0</tilted></_>
    <_>
      <rects>
        <_>
          9 17 6 3 -1.</_>
        <_>
          11 18 2 1 9.</_></rects>
      <tilted>0</tilted></_>
    <_>
      <rects>
        <_>
          9 17 4 18 -1.</_>
        <_>
          9 26 4 9 2.</_></rects>
      <tilted>0</tilted></_>
    <_>
      <rects>
        <_>
          9 18 6 3 -1.</_>
        <_>
          11 19 2 1 9.</_></rects>
      <tilted>0</tilted></_>
    <_>
      <rects>
        <_>
          9 18 6 6 -1.</_>
        <_>
          9 21 6 3 2.</_></rects>
      <tilted>0</tilted></_>
    <_>
      <rects>
        <_>
          9 18 7 6 -1.</_>
        <_>
          9 21 7 3 2.</_></rects>
      <tilted>0</tilted></_>
    <_>
      <rects>
        <_>
          9 19 3 15 -1.</_>
        <_>
          9 24 3 5 3.</_></rects>
      <tilted>0</tilted></_>
    <_>
      <rects>
        <_>
          9 19 7 6 -1.</_>
        <_>
          9 21 7 2 3.</_></rects>
      <tilted>0</tilted></_>
    <_>
      <rects>
        <_>
          9 21 3 1 -1.</_>
        <_>
          10 22 1 1 3.</_></rects>
      <tilted>1</tilted></_>
    <_>
      <rects>
        <_>
          9 21 3 3 -1.</_>
        <_>
          9 22 3 1 3.</_></rects>
      <tilted>0</tilted></_>
    <_>
      <rects>
        <_>
          9 22 3 6 -1.</_>
        <_>
          10 24 1 2 9.</_></rects>
      <tilted>0</tilted></_>
    <_>
      <rects>
        <_>
          9 23 2 6 -1.</_>
        <_>
          9 23 1 3 2.</_>
        <_>
          10 26 1 3 2.</_></rects>
      <tilted>0</tilted></_>
    <_>
      <rects>
        <_>
          9 24 3 3 -1.</_>
        <_>
          10 25 1 1 9.</_></rects>
      <tilted>0</tilted></_>
    <_>
      <rects>
        <_>
          9 24 1 2 -1.</_>
        <_>
          9 24 1 1 2.</_></rects>
      <tilted>1</tilted></_>
    <_>
      <rects>
        <_>
          9 25 3 3 -1.</_>
        <_>
          10 26 1 1 9.</_></rects>
      <tilted>0</tilted></_>
    <_>
      <rects>
        <_>
          9 26 3 1 -1.</_>
        <_>
          10 26 1 1 3.</_></rects>
      <tilted>0</tilted></_>
    <_>
      <rects>
        <_>
          10 12 3 3 -1.</_>
        <_>
          11 13 1 1 9.</_></rects>
      <tilted>0</tilted></_>
    <_>
      <rects>
        <_>
          10 13 6 6 -1.</_>
        <_>
          13 13 3 6 2.</_></rects>
      <tilted>0</tilted></_>
    <_>
      <rects>
        <_>
          10 14 3 3 -1.</_>
        <_>
          11 15 1 1 9.</_></rects>
      <tilted>0</tilted></_>
    <_>
      <rects>
        <_>
          10 14 6 18 -1.</_>
        <_>
          12 20 2 6 9.</_></rects>
      <tilted>0</tilted></_>
    <_>
      <rects>
        <_>
          10 15 3 3 -1.</_>
        <_>
          11 16 1 1 9.</_></rects>
      <tilted>0</tilted></_>
    <_>
      <rects>
        <_>
          10 15 6 15 -1.</_>
        <_>
          12 20 2 5 9.</_></rects>
      <tilted>0</tilted></_>
    <_>
      <rects>
        <_>
          10 15 12 7 -1.</_>
        <_>
          13 15 6 7 2.</_></rects>
      <tilted>0</tilted></_>
    <_>
      <rects>
        <_>
          10 16 3 3 -1.</_>
        <_>
          11 17 1 1 9.</_></rects>
      <tilted>0</tilted></_>
    <_>
      <rects>
        <_>
          10 16 12 6 -1.</_>
        <_>
          14 16 4 6 3.</_></rects>
      <tilted>0</tilted></_>
    <_>
      <rects>
        <_>
          10 16 4 16 -1.</_>
        <_>
          10 24 4 8 2.</_></rects>
      <tilted>0</tilted></_>
    <_>
      <rects>
        <_>
          10 17 9 3 -1.</_>
        <_>
          13 20 3 3 3.</_></rects>
      <tilted>1</tilted></_>
    <_>
      <rects>
        <_>
          10 17 6 8 -1.</_>
        <_>
          10 21 6 4 2.</_></rects>
      <tilted>0</tilted></_>
    <_>
      <rects>
        <_>
          10 18 2 1 -1.</_>
        <_>
          11 18 1 1 2.</_></rects>
      <tilted>0</tilted></_>
    <_>
      <rects>
        <_>
          10 18 9 3 -1.</_>
        <_>
          13 18 3 3 3.</_></rects>
      <tilted>0</tilted></_>
    <_>
      <rects>
        <_>
          10 18 5 6 -1.</_>
        <_>
          10 20 5 2 3.</_></rects>
      <tilted>0</tilted></_>
    <_>
      <rects>
        <_>
          10 19 3 3 -1.</_>
        <_>
          11 20 1 3 3.</_></rects>
      <tilted>1</tilted></_>
    <_>
      <rects>
        <_>
          10 20 3 2 -1.</_>
        <_>
          11 21 1 2 3.</_></rects>
      <tilted>1</tilted></_>
    <_>
      <rects>
        <_>
          10 21 3 2 -1.</_>
        <_>
          11 22 1 2 3.</_></rects>
      <tilted>1</tilted></_>
    <_>
      <rects>
        <_>
          10 21 6 5 -1.</_>
        <_>
          12 21 2 5 3.</_></rects>
      <tilted>0</tilted></_>
    <_>
      <rects>
        <_>
          10 21 3 3 -1.</_>
        <_>
          10 22 3 1 3.</_></rects>
      <tilted>0</tilted></_>
    <_>
      <rects>
        <_>
          10 21 4 4 -1.</_>
        <_>
          10 23 4 2 2.</_></rects>
      <tilted>0</tilted></_>
    <_>
      <rects>
        <_>
          10 24 3 3 -1.</_>
        <_>
          11 25 1 1 9.</_></rects>
      <tilted>0</tilted></_>
    <_>
      <rects>
        <_>
          10 24 9 6 -1.</_>
        <_>
          13 24 3 6 3.</_></rects>
      <tilted>0</tilted></_>
    <_>
      <rects>
        <_>
          10 24 4 12 -1.</_>
        <_>
          10 30 4 6 2.</_></rects>
      <tilted>0</tilted></_>
    <_>
      <rects>
        <_>
          10 26 3 1 -1.</_>
        <_>
          11 26 1 1 3.</_></rects>
      <tilted>0</tilted></_>
    <_>
      <rects>
        <_>
          10 27 3 1 -1.</_>
        <_>
          11 27 1 1 3.</_></rects>
      <tilted>0</tilted></_>
    <_>
      <rects>
        <_>
          10 27 3 3 -1.</_>
        <_>
          11 28 1 1 9.</_></rects>
      <tilted>0</tilted></_>
    <_>
      <rects>
        <_>
          11 2 6 27 -1.</_>
        <_>
          11 11 6 9 3.</_></rects>
      <tilted>0</tilted></_>
    <_>
      <rects>
        <_>
          11 11 3 3 -1.</_>
        <_>
          12 12 1 1 9.</_></rects>
      <tilted>0</tilted></_>
    <_>
      <rects>
        <_>
          11 13 3 3 -1.</_>
        <_>
          12 14 1 1 9.</_></rects>
      <tilted>0</tilted></_>
    <_>
      <rects>
        <_>
          11 13 3 22 -1.</_>
        <_>
          11 24 3 11 2.</_></rects>
      <tilted>0</tilted></_>
    <_>
      <rects>
        <_>
          11 15 3 3 -1.</_>
        <_>
          12 16 1 1 9.</_></rects>
      <tilted>0</tilted></_>
    <_>
      <rects>
        <_>
          11 15 6 3 -1.</_>
        <_>
          13 16 2 1 9.</_></rects>
      <tilted>0</tilted></_>
    <_>
      <rects>
        <_>
          11 16 3 3 -1.</_>
        <_>
          12 17 1 1 9.</_></rects>
      <tilted>0</tilted></_>
    <_>
      <rects>
        <_>
          11 16 9 16 -1.</_>
        <_>
          11 24 9 8 2.</_></rects>
      <tilted>0</tilted></_>
    <_>
      <rects>
        <_>
          11 17 6 3 -1.</_>
        <_>
          13 18 2 1 9.</_></rects>
      <tilted>0</tilted></_>
    <_>
      <rects>
        <_>
          11 19 4 4 -1.</_>
        <_>
          12 20 2 4 2.</_></rects>
      <tilted>1</tilted></_>
    <_>
      <rects>
        <_>
          11 19 10 7 -1.</_>
        <_>
          16 19 5 7 2.</_></rects>
      <tilted>0</tilted></_>
    <_>
      <rects>
        <_>
          11 20 4 4 -1.</_>
        <_>
          11 20 2 4 2.</_></rects>
      <tilted>1</tilted></_>
    <_>
      <rects>
        <_>
          11 21 1 6 -1.</_>
        <_>
          11 21 1 3 2.</_></rects>
      <tilted>1</tilted></_>
    <_>
      <rects>
        <_>
          11 21 6 3 -1.</_>
        <_>
          13 23 2 3 3.</_></rects>
      <tilted>1</tilted></_>
    <_>
      <rects>
        <_>
          11 22 1 3 -1.</_>
        <_>
          11 23 1 1 3.</_></rects>
      <tilted>0</tilted></_>
    <_>
      <rects>
        <_>
          11 22 3 3 -1.</_>
        <_>
          12 23 1 1 9.</_></rects>
      <tilted>0</tilted></_>
    <_>
      <rects>
        <_>
          11 22 3 2 -1.</_>
        <_>
          11 23 3 1 2.</_></rects>
      <tilted>0</tilted></_>
    <_>
      <rects>
        <_>
          11 22 8 2 -1.</_>
        <_>
          11 22 4 1 2.</_>
        <_>
          15 23 4 1 2.</_></rects>
      <tilted>0</tilted></_>
    <_>
      <rects>
        <_>
          11 23 2 2 -1.</_>
        <_>
          11 23 1 1 2.</_>
        <_>
          12 24 1 1 2.</_></rects>
      <tilted>0</tilted></_>
    <_>
      <rects>
        <_>
          11 23 2 10 -1.</_>
        <_>
          11 28 2 5 2.</_></rects>
      <tilted>0</tilted></_>
    <_>
      <rects>
        <_>
          11 23 6 3 -1.</_>
        <_>
          14 23 3 3 2.</_></rects>
      <tilted>0</tilted></_>
    <_>
      <rects>
        <_>
          11 23 9 4 -1.</_>
        <_>
          14 23 3 4 3.</_></rects>
      <tilted>0</tilted></_>
    <_>
      <rects>
        <_>
          11 23 6 5 -1.</_>
        <_>
          14 23 3 5 2.</_></rects>
      <tilted>0</tilted></_>
    <_>
      <rects>
        <_>
          11 24 2 2 -1.</_>
        <_>
          11 24 1 1 2.</_>
        <_>
          12 25 1 1 2.</_></rects>
      <tilted>0</tilted></_>
    <_>
      <rects>
        <_>
          11 24 6 6 -1.</_>
        <_>
          11 27 6 3 2.</_></rects>
      <tilted>0</tilted></_>
    <_>
      <rects>
        <_>
          11 24 7 10 -1.</_>
        <_>
          11 29 7 5 2.</_></rects>
      <tilted>0</tilted></_>
    <_>
      <rects>
        <_>
          11 25 13 4 -1.</_>
        <_>
          11 27 13 2 2.</_></rects>
      <tilted>0</tilted></_>
    <_>
      <rects>
        <_>
          12 15 8 2 -1.</_>
        <_>
          12 15 4 2 2.</_></rects>
      <tilted>1</tilted></_>
    <_>
      <rects>
        <_>
          12 16 3 3 -1.</_>
        <_>
          13 17 1 1 9.</_></rects>
      <tilted>0</tilted></_>
    <_>
      <rects>
        <_>
          12 16 6 7 -1.</_>
        <_>
          15 16 3 7 2.</_></rects>
      <tilted>0</tilted></_>
    <_>
      <rects>
        <_>
          12 17 3 3 -1.</_>
        <_>
          13 18 1 1 9.</_></rects>
      <tilted>0</tilted></_>
    <_>
      <rects>
        <_>
          12 17 2 20 -1.</_>
        <_>
          12 27 2 10 2.</_></rects>
      <tilted>0</tilted></_>
    <_>
      <rects>
        <_>
          12 19 2 1 -1.</_>
        <_>
          13 19 1 1 2.</_></rects>
      <tilted>0</tilted></_>
    <_>
      <rects>
        <_>
          12 20 1 2 -1.</_>
        <_>
          12 21 1 1 2.</_></rects>
      <tilted>0</tilted></_>
    <_>
      <rects>
        <_>
          12 20 3 6 -1.</_>
        <_>
          12 20 3 3 2.</_></rects>
      <tilted>1</tilted></_>
    <_>
      <rects>
        <_>
          12 20 8 8 -1.</_>
        <_>
          10 22 8 4 2.</_></rects>
      <tilted>1</tilted></_>
    <_>
      <rects>
        <_>
          12 21 3 1 -1.</_>
        <_>
          13 21 1 1 3.</_></rects>
      <tilted>0</tilted></_>
    <_>
      <rects>
        <_>
          12 21 1 9 -1.</_>
        <_>
          9 24 1 3 3.</_></rects>
      <tilted>1</tilted></_>
    <_>
      <rects>
        <_>
          12 21 2 6 -1.</_>
        <_>
          12 23 2 2 3.</_></rects>
      <tilted>0</tilted></_>
    <_>
      <rects>
        <_>
          12 21 8 6 -1.</_>
        <_>
          16 21 4 6 2.</_></rects>
      <tilted>0</tilted></_>
    <_>
      <rects>
        <_>
          12 23 3 3 -1.</_>
        <_>
          13 24 1 1 9.</_></rects>
      <tilted>0</tilted></_>
    <_>
      <rects>
        <_>
          12 23 6 3 -1.</_>
        <_>
          12 23 3 3 2.</_></rects>
      <tilted>1</tilted></_>
    <_>
      <rects>
        <_>
          12 23 6 6 -1.</_>
        <_>
          12 23 3 6 2.</_></rects>
      <tilted>1</tilted></_>
    <_>
      <rects>
        <_>
          12 24 1 2 -1.</_>
        <_>
          12 25 1 1 2.</_></rects>
      <tilted>0</tilted></_>
    <_>
      <rects>
        <_>
          12 24 3 3 -1.</_>
        <_>
          13 25 1 1 9.</_></rects>
      <tilted>0</tilted></_>
    <_>
      <rects>
        <_>
          12 25 3 1 -1.</_>
        <_>
          13 25 1 1 3.</_></rects>
      <tilted>0</tilted></_>
    <_>
      <rects>
        <_>
          12 25 2 2 -1.</_>
        <_>
          12 25 1 1 2.</_>
        <_>
          13 26 1 1 2.</_></rects>
      <tilted>0</tilted></_>
    <_>
      <rects>
        <_>
          12 25 6 6 -1.</_>
        <_>
          14 25 2 6 3.</_></rects>
      <tilted>0</tilted></_>
    <_>
      <rects>
        <_>
          13 5 8 18 -1.</_>
        <_>
          13 11 8 6 3.</_></rects>
      <tilted>0</tilted></_>
    <_>
      <rects>
        <_>
          13 15 6 9 -1.</_>
        <_>
          16 15 3 9 2.</_></rects>
      <tilted>0</tilted></_>
    <_>
      <rects>
        <_>
          13 15 10 3 -1.</_>
        <_>
          13 15 5 3 2.</_></rects>
      <tilted>1</tilted></_>
    <_>
      <rects>
        <_>
          13 15 9 4 -1.</_>
        <_>
          13 15 9 2 2.</_></rects>
      <tilted>1</tilted></_>
    <_>
      <rects>
        <_>
          13 18 1 2 -1.</_>
        <_>
          13 19 1 1 2.</_></rects>
      <tilted>0</tilted></_>
    <_>
      <rects>
        <_>
          13 18 8 5 -1.</_>
        <_>
          13 18 4 5 2.</_></rects>
      <tilted>1</tilted></_>
    <_>
      <rects>
        <_>
          13 19 2 1 -1.</_>
        <_>
          14 19 1 1 2.</_></rects>
      <tilted>0</tilted></_>
    <_>
      <rects>
        <_>
          13 19 3 1 -1.</_>
        <_>
          14 19 1 1 3.</_></rects>
      <tilted>0</tilted></_>
    <_>
      <rects>
        <_>
          13 20 2 1 -1.</_>
        <_>
          14 20 1 1 2.</_></rects>
      <tilted>0</tilted></_>
    <_>
      <rects>
        <_>
          13 20 6 6 -1.</_>
        <_>
          13 20 6 3 2.</_></rects>
      <tilted>1</tilted></_>
    <_>
      <rects>
        <_>
          13 21 1 3 -1.</_>
        <_>
          13 22 1 1 3.</_></rects>
      <tilted>0</tilted></_>
    <_>
      <rects>
        <_>
          13 22 1 3 -1.</_>
        <_>
          13 23 1 1 3.</_></rects>
      <tilted>0</tilted></_>
    <_>
      <rects>
        <_>
          13 23 8 4 -1.</_>
        <_>
          13 23 8 2 2.</_></rects>
      <tilted>1</tilted></_>
    <_>
      <rects>
        <_>
          13 24 3 1 -1.</_>
        <_>
          14 24 1 1 3.</_></rects>
      <tilted>0</tilted></_>
    <_>
      <rects>
        <_>
          13 24 1 3 -1.</_>
        <_>
          13 25 1 1 3.</_></rects>
      <tilted>0</tilted></_>
    <_>
      <rects>
        <_>
          13 25 2 2 -1.</_>
        <_>
          13 25 1 1 2.</_>
        <_>
          14 26 1 1 2.</_></rects>
      <tilted>0</tilted></_>
    <_>
      <rects>
        <_>
          14 14 2 22 -1.</_>
        <_>
          14 25 2 11 2.</_></rects>
      <tilted>0</tilted></_>
    <_>
      <rects>
        <_>
          14 16 10 10 -1.</_>
        <_>
          14 16 5 10 2.</_></rects>
      <tilted>1</tilted></_>
    <_>
      <rects>
        <_>
          14 18 1 2 -1.</_>
        <_>
          14 19 1 1 2.</_></rects>
      <tilted>0</tilted></_>
    <_>
      <rects>
        <_>
          14 19 8 4 -1.</_>
        <_>
          14 19 4 4 2.</_></rects>
      <tilted>1</tilted></_>
    <_>
      <rects>
        <_>
          14 20 4 12 -1.</_>
        <_>
          14 26 4 6 2.</_></rects>
      <tilted>0</tilted></_>
    <_>
      <rects>
        <_>
          14 21 9 6 -1.</_>
        <_>
          17 21 3 6 3.</_></rects>
      <tilted>0</tilted></_>
    <_>
      <rects>
        <_>
          14 22 2 12 -1.</_>
        <_>
          14 28 2 6 2.</_></rects>
      <tilted>0</tilted></_>
    <_>
      <rects>
        <_>
          14 23 1 3 -1.</_>
        <_>
          14 24 1 1 3.</_></rects>
      <tilted>0</tilted></_>
    <_>
      <rects>
        <_>
          14 23 6 2 -1.</_>
        <_>
          16 25 2 2 3.</_></rects>
      <tilted>1</tilted></_>
    <_>
      <rects>
        <_>
          14 24 2 2 -1.</_>
        <_>
          14 24 1 1 2.</_>
        <_>
          15 25 1 1 2.</_></rects>
      <tilted>0</tilted></_>
    <_>
      <rects>
        <_>
          14 25 4 6 -1.</_>
        <_>
          14 28 4 3 2.</_></rects>
      <tilted>0</tilted></_>
    <_>
      <rects>
        <_>
          14 28 2 1 -1.</_>
        <_>
          15 28 1 1 2.</_></rects>
      <tilted>0</tilted></_>
    <_>
      <rects>
        <_>
          14 28 3 3 -1.</_>
        <_>
          14 29 3 1 3.</_></rects>
      <tilted>0</tilted></_>
    <_>
      <rects>
        <_>
          14 28 10 12 -1.</_>
        <_>
          19 28 5 12 2.</_></rects>
      <tilted>0</tilted></_>
    <_>
      <rects>
        <_>
          15 15 3 3 -1.</_>
        <_>
          16 16 1 1 9.</_></rects>
      <tilted>0</tilted></_>
    <_>
      <rects>
        <_>
          15 16 7 9 -1.</_>
        <_>
          12 19 7 3 3.</_></rects>
      <tilted>1</tilted></_>
    <_>
      <rects>
        <_>
          15 16 9 6 -1.</_>
        <_>
          15 16 9 3 2.</_></rects>
      <tilted>1</tilted></_>
    <_>
      <rects>
        <_>
          15 18 2 16 -1.</_>
        <_>
          15 26 2 8 2.</_></rects>
      <tilted>0</tilted></_>
    <_>
      <rects>
        <_>
          15 20 3 3 -1.</_>
        <_>
          16 21 1 1 9.</_></rects>
      <tilted>0</tilted></_>
    <_>
      <rects>
        <_>
          15 20 6 8 -1.</_>
        <_>
          17 20 2 8 3.</_></rects>
      <tilted>0</tilted></_>
