<?xml version="1.0"?>
<opencv_storage>
<cascade>
  <stageType>BOOST</stageType>
  <featureType>HAAR</featureType>
  <height>48</height>
  <width>24</width>
  <stageParams>
    <boostType>GAB</boostType>
    <minHitRate>9.9900001287460327e-01</minHitRate>
    <maxFalseAlarm>5.0000000000000000e-01</maxFalseAlarm>
    <weightTrimRate>9.4999999999999996e-01</weightTrimRate>
    <maxDepth>1</maxDepth>
    <maxWeakCount>100</maxWeakCount></stageParams>
  <featureParams>
    <maxCatCount>0</maxCatCount>
    <featSize>1</featSize>
    <mode>ALL</mode></featureParams>
  <stageNum>17</stageNum>
  <stages>
    <!-- stage 0 -->
    <_>
      <maxWeakCount>2</maxWeakCount>
      <stageThreshold>-1.1577016860246658e-01</stageThreshold>
      <weakClassifiers>
        <_>
          <internalNodes>
            0 -1 20 5.4557792842388153e-02</internalNodes>
          <leafValues>
            -9.4463670253753662e-01 9.2563599348068237e-01</leafValues></_>
        <_>
          <internalNodes>
            0 -1 12 -1.4694897457957268e-02</internalNodes>
          <leafValues>
            8.2886654138565063e-01 -9.6039158105850220e-01</leafValues></_></weakClassifiers></_>
    <!-- stage 1 -->
    <_>
      <maxWeakCount>5</maxWeakCount>
      <stageThreshold>-1.5309609174728394e+00</stageThreshold>
      <weakClassifiers>
        <_>
          <internalNodes>
            0 -1 19 1.4324904978275299e-01</internalNodes>
          <leafValues>
            -8.5971224308013916e-01 8.4099614620208740e-01</leafValues></_>
        <_>
          <internalNodes>
            0 -1 57 -3.4312982112169266e-02</internalNodes>
          <leafValues>
            5.6579542160034180e-01 -9.5077615976333618e-01</leafValues></_>
        <_>
          <internalNodes>
            0 -1 42 1.4571315050125122e-01</internalNodes>
          <leafValues>
            -5.5640357732772827e-01 6.6695988178253174e-01</leafValues></_>
        <_>
          <internalNodes>
            0 -1 30 9.3820337206125259e-03</internalNodes>
          <leafValues>
            -9.0662664175033569e-01 4.4387573003768921e-01</leafValues></_>
        <_>
          <internalNodes>
            0 -1 78 3.4609698923304677e-04</internalNodes>
          <leafValues>
            3.9205530285835266e-01 -8.7646681070327759e-01</leafValues></_></weakClassifiers></_>
    <!-- stage 2 -->
    <_>
      <maxWeakCount>6</maxWeakCount>
      <stageThreshold>-1.2777725458145142e+00</stageThreshold>
      <weakClassifiers>
        <_>
          <internalNodes>
            0 -1 15 1.2400157749652863e-01</internalNodes>
          <leafValues>
            -7.7067667245864868e-01 7.5842696428298950e-01</leafValues></_>
        <_>
          <internalNodes>
            0 -1 107 6.9259427487850189e-02</internalNodes>
          <leafValues>
            -6.0469734668731689e-01 5.8036100864410400e-01</leafValues></_>
        <_>
          <internalNodes>
            0 -1 16 -1.4563436619937420e-02</internalNodes>
          <leafValues>
            4.5041668415069580e-01 -5.7986432313919067e-01</leafValues></_>
        <_>
          <internalNodes>
            0 -1 95 -4.4090747833251953e-03</internalNodes>
          <leafValues>
            3.7036356329917908e-01 -8.1116074323654175e-01</leafValues></_>
        <_>
          <internalNodes>
            0 -1 34 -3.8346476852893829e-02</internalNodes>
          <leafValues>
            2.2545233368873596e-01 -9.7271925210952759e-01</leafValues></_>
        <_>
          <internalNodes>
            0 -1 119 -1.2672992306761444e-04</internalNodes>
          <leafValues>
            -9.5426857471466064e-01 2.3289324343204498e-01</leafValues></_></weakClassifiers></_>
    <!-- stage 3 -->
    <_>
      <maxWeakCount>6</maxWeakCount>
      <stageThreshold>-1.5007835626602173e+00</stageThreshold>
      <weakClassifiers>
        <_>
          <internalNodes>
            0 -1 43 5.5698074400424957e-02</internalNodes>
          <leafValues>
            -7.4881517887115479e-01 6.0780984163284302e-01</leafValues></_>
        <_>
          <internalNodes>
            0 -1 62 1.0756905248854309e-04</internalNodes>
          <leafValues>
            3.7303206324577332e-01 -8.4340077638626099e-01</leafValues></_>
        <_>
          <internalNodes>
            0 -1 40 7.5577367097139359e-03</internalNodes>
          <leafValues>
            -9.0009504556655884e-01 3.8502061367034912e-01</leafValues></_>
        <_>
          <internalNodes>
            0 -1 76 1.0875661973841488e-04</internalNodes>
          <leafValues>
            2.1350312232971191e-01 -8.9535808563232422e-01</leafValues></_>
        <_>
          <internalNodes>
            0 -1 115 -1.2646269169636071e-04</internalNodes>
          <leafValues>
            -8.3530783653259277e-01 2.9607608914375305e-01</leafValues></_>
        <_>
          <internalNodes>
            0 -1 99 8.8192027760669589e-05</internalNodes>
          <leafValues>
            2.2064490616321564e-01 -9.7040194272994995e-01</leafValues></_></weakClassifiers></_>
    <!-- stage 4 -->
    <_>
      <maxWeakCount>7</maxWeakCount>
      <stageThreshold>-1.8312420845031738e+00</stageThreshold>
      <weakClassifiers>
        <_>
          <internalNodes>
            0 -1 37 9.2869102954864502e-03</internalNodes>
          <leafValues>
            -7.3464375734329224e-01 5.8591783046722412e-01</leafValues></_>
        <_>
          <internalNodes>
            0 -1 168 5.1973471418023109e-03</internalNodes>
          <leafValues>
            -4.8226404190063477e-01 5.9984946250915527e-01</leafValues></_>
        <_>
          <internalNodes>
            0 -1 82 2.1996810100972652e-03</internalNodes>
          <leafValues>
            -6.4843553304672241e-01 4.1686856746673584e-01</leafValues></_>
        <_>
          <internalNodes>
            0 -1 54 1.0872496291995049e-02</internalNodes>
          <leafValues>
            -8.3303225040435791e-01 3.3146542310714722e-01</leafValues></_>
        <_>
          <internalNodes>
            0 -1 84 8.6186773842200637e-05</internalNodes>
          <leafValues>
            1.6787682473659515e-01 -8.8898384571075439e-01</leafValues></_>
        <_>
          <internalNodes>
            0 -1 103 5.6520795624237508e-05</internalNodes>
          <leafValues>
            2.2086499631404877e-01 -9.4807302951812744e-01</leafValues></_>
        <_>
          <internalNodes>
            0 -1 55 6.6509679891169071e-04</internalNodes>
          <leafValues>
            -8.5061335563659668e-01 2.0684041082859039e-01</leafValues></_></weakClassifiers></_>
    <!-- stage 5 -->
    <_>
      <maxWeakCount>9</maxWeakCount>
      <stageThreshold>-1.9560633897781372e+00</stageThreshold>
      <weakClassifiers>
        <_>
          <internalNodes>
            0 -1 21 -1.3525829650461674e-02</internalNodes>
          <leafValues>
            5.2701646089553833e-01 -8.4520125389099121e-01</leafValues></_>
        <_>
          <internalNodes>
            0 -1 25 1.9342824816703796e-01</internalNodes>
          <leafValues>
            -5.8608692884445190e-01 4.3738377094268799e-01</leafValues></_>
        <_>
          <internalNodes>
            0 -1 148 1.4074302744120359e-03</internalNodes>
          <leafValues>
            -4.0437313914299011e-01 5.7171916961669922e-01</leafValues></_>
        <_>
          <internalNodes>
            0 -1 80 2.4305959232151508e-04</internalNodes>
          <leafValues>
            3.1370639801025391e-01 -7.7748829126358032e-01</leafValues></_>
        <_>
          <internalNodes>
            0 -1 88 2.8601948171854019e-02</internalNodes>
          <leafValues>
            -8.3667999505996704e-01 2.0273917913436890e-01</leafValues></_>
        <_>
          <internalNodes>
            0 -1 100 -3.7852255627512932e-03</internalNodes>
          <leafValues>
            2.4235461652278900e-01 -8.9766025543212891e-01</leafValues></_>
        <_>
          <internalNodes>
            0 -1 36 -6.0812849551439285e-03</internalNodes>
          <leafValues>
            2.5907287001609802e-01 -6.7091846466064453e-01</leafValues></_>
        <_>
          <internalNodes>
            0 -1 118 -8.2438840763643384e-05</internalNodes>
          <leafValues>
            -8.7267392873764038e-01 2.0183347165584564e-01</leafValues></_>
        <_>
          <internalNodes>
            0 -1 47 9.1529608471319079e-04</internalNodes>
          <leafValues>
            -6.9114035367965698e-01 2.6734980940818787e-01</leafValues></_></weakClassifiers></_>
    <!-- stage 6 -->
    <_>
      <maxWeakCount>11</maxWeakCount>
      <stageThreshold>-1.5432114601135254e+00</stageThreshold>
      <weakClassifiers>
        <_>
          <internalNodes>
            0 -1 77 9.6361269243061543e-05</internalNodes>
          <leafValues>
            4.7215867042541504e-01 -7.5778543949127197e-01</leafValues></_>
        <_>
          <internalNodes>
            0 -1 156 3.3188955858349800e-03</internalNodes>
          <leafValues>
            -3.3417010307312012e-01 7.9284912347793579e-01</leafValues></_>
        <_>
          <internalNodes>
            0 -1 85 1.0874086001422256e-04</internalNodes>
          <leafValues>
            3.3818370103836060e-01 -7.1974247694015503e-01</leafValues></_>
        <_>
          <internalNodes>
            0 -1 22 4.7573089599609375e-02</internalNodes>
          <leafValues>
            -6.5167325735092163e-01 4.0307959914207458e-01</leafValues></_>
        <_>
          <internalNodes>
            0 -1 31 -1.9992046058177948e-02</internalNodes>
          <leafValues>
            1.7316453158855438e-01 -9.0532374382019043e-01</leafValues></_>
        <_>
          <internalNodes>
            0 -1 93 5.8012206864077598e-05</internalNodes>
          <leafValues>
            2.0405527949333191e-01 -7.9737532138824463e-01</leafValues></_>
        <_>
          <internalNodes>
            0 -1 161 3.9845444262027740e-03</internalNodes>
          <leafValues>
            -2.8826418519020081e-01 7.5633591413497925e-01</leafValues></_>
        <_>
          <internalNodes>
            0 -1 79 -9.6338364528492093e-05</internalNodes>
          <leafValues>
            -9.0811151266098022e-01 2.7316904067993164e-01</leafValues></_>
        <_>
          <internalNodes>
            0 -1 171 7.6551153324544430e-04</internalNodes>
          <leafValues>
            -3.7976598739624023e-01 5.8427816629409790e-01</leafValues></_>
        <_>
          <internalNodes>
            0 -1 109 4.5539019629359245e-03</internalNodes>
          <leafValues>
            -3.4678941965103149e-01 5.3634566068649292e-01</leafValues></_>
        <_>
          <internalNodes>
            0 -1 75 -7.9335426562465727e-05</internalNodes>
          <leafValues>
            -9.0004462003707886e-01 2.2983767092227936e-01</leafValues></_></weakClassifiers></_>
    <!-- stage 7 -->
    <_>
      <maxWeakCount>12</maxWeakCount>
      <stageThreshold>-1.3688818216323853e+00</stageThreshold>
      <weakClassifiers>
        <_>
          <internalNodes>
            0 -1 59 -3.5546885337680578e-03</internalNodes>
          <leafValues>
            4.8487198352813721e-01 -7.2347265481948853e-01</leafValues></_>
        <_>
          <internalNodes>
            0 -1 124 1.6313709318637848e-02</internalNodes>
          <leafValues>
            -8.2672107219696045e-01 3.3850544691085815e-01</leafValues></_>
        <_>
          <internalNodes>
            0 -1 144 5.4260221077129245e-04</internalNodes>
          <leafValues>
            -3.7938523292541504e-01 5.3248417377471924e-01</leafValues></_>
        <_>
          <internalNodes>
            0 -1 44 1.3847669586539268e-02</internalNodes>
          <leafValues>
            -8.9089047908782959e-01 2.1424506604671478e-01</leafValues></_>
        <_>
          <internalNodes>
            0 -1 127 7.2668754728510976e-04</internalNodes>
          <leafValues>
            -6.9927567243576050e-01 2.9456445574760437e-01</leafValues></_>
        <_>
          <internalNodes>
            0 -1 165 -7.9398870002478361e-04</internalNodes>
          <leafValues>
            8.4529292583465576e-01 -2.6425158977508545e-01</leafValues></_>
        <_>
          <internalNodes>
            0 -1 163 -5.2919215522706509e-04</internalNodes>
          <leafValues>
            7.5641357898712158e-01 -2.9922866821289062e-01</leafValues></_>
        <_>
          <internalNodes>
            0 -1 97 9.7002412076108158e-05</internalNodes>
          <leafValues>
            2.6349788904190063e-01 -8.8323098421096802e-01</leafValues></_>
        <_>
          <internalNodes>
            0 -1 173 6.5266102319583297e-04</internalNodes>
          <leafValues>
            -2.6345592737197876e-01 7.8518885374069214e-01</leafValues></_>
        <_>
          <internalNodes>
            0 -1 65 1.0603173723211512e-04</internalNodes>
          <leafValues>
            2.9435780644416809e-01 -7.1456670761108398e-01</leafValues></_>
        <_>
          <internalNodes>
            0 -1 48 9.9626788869500160e-04</internalNodes>
          <leafValues>
            -4.7166469693183899e-01 3.9630517363548279e-01</leafValues></_>
        <_>
          <internalNodes>
            0 -1 173 -4.4221617281436920e-04</internalNodes>
          <leafValues>
            7.3822486400604248e-01 -2.4672348797321320e-01</leafValues></_></weakClassifiers></_>
    <!-- stage 8 -->
    <_>
      <maxWeakCount>12</maxWeakCount>
      <stageThreshold>-1.4064474105834961e+00</stageThreshold>
      <weakClassifiers>
        <_>
          <internalNodes>
            0 -1 116 -1.2074141704943031e-04</internalNodes>
          <leafValues>
            -9.5215308666229248e-01 4.3062543869018555e-01</leafValues></_>
        <_>
          <internalNodes>
            0 -1 17 3.3085137605667114e-02</internalNodes>
          <leafValues>
            -4.8309445381164551e-01 4.7396913170814514e-01</leafValues></_>
        <_>
          <internalNodes>
            0 -1 150 3.3294935710728168e-03</internalNodes>
          <leafValues>
            -2.6098001003265381e-01 7.0937895774841309e-01</leafValues></_>
        <_>
          <internalNodes>
            0 -1 101 8.5035127995070070e-05</internalNodes>
          <leafValues>
            2.8633213043212891e-01 -7.1198081970214844e-01</leafValues></_>
        <_>
          <internalNodes>
            0 -1 145 1.4778067125007510e-03</internalNodes>
          <leafValues>
            -2.7253928780555725e-01 7.1690762042999268e-01</leafValues></_>
        <_>
          <internalNodes>
            0 -1 98 -4.3010641820728779e-04</internalNodes>
          <leafValues>
            -9.7562509775161743e-01 2.2983200848102570e-01</leafValues></_>
        <_>
          <internalNodes>
            0 -1 143 -1.5864535234868526e-03</internalNodes>
          <leafValues>
            7.0718085765838623e-01 -3.0359798669815063e-01</leafValues></_>
        <_>
          <internalNodes>
            0 -1 39 5.0598904490470886e-03</internalNodes>
          <leafValues>
            -8.0673581361770630e-01 2.2872057557106018e-01</leafValues></_>
        <_>
          <internalNodes>
            0 -1 164 -6.7642354406416416e-04</internalNodes>
          <leafValues>
            5.8917361497879028e-01 -3.3737367391586304e-01</leafValues></_>
        <_>
          <internalNodes>
            0 -1 60 1.9717364921234548e-04</internalNodes>
          <leafValues>
            2.5215092301368713e-01 -6.8887829780578613e-01</leafValues></_>
        <_>
          <internalNodes>
            0 -1 92 1.5213170554488897e-03</internalNodes>
          <leafValues>
            -3.4316989779472351e-01 5.3441435098648071e-01</leafValues></_>
        <_>
          <internalNodes>
            0 -1 91 -1.5566340880468488e-04</internalNodes>
          <leafValues>
            2.0210321247577667e-01 -8.1984364986419678e-01</leafValues></_></weakClassifiers></_>
    <!-- stage 9 -->
    <_>
      <maxWeakCount>11</maxWeakCount>
      <stageThreshold>-1.0419176816940308e+00</stageThreshold>
      <weakClassifiers>
        <_>
          <internalNodes>
            0 -1 11 -2.0869658328592777e-03</internalNodes>
          <leafValues>
            4.7556245326995850e-01 -6.8488746881484985e-01</leafValues></_>
        <_>
          <internalNodes>
            0 -1 130 4.7474671155214310e-03</internalNodes>
          <leafValues>
            -3.2189455628395081e-01 5.0642389059066772e-01</leafValues></_>
        <_>
          <internalNodes>
            0 -1 122 1.2991752475500107e-02</internalNodes>
          <leafValues>
            -3.2282984256744385e-01 4.5041385293006897e-01</leafValues></_>
        <_>
          <internalNodes>
            0 -1 142 1.8741837702691555e-03</internalNodes>
          <leafValues>
            -2.9386714100837708e-01 4.7899845242500305e-01</leafValues></_>
        <_>
          <internalNodes>
            0 -1 154 -9.1488938778638840e-04</internalNodes>
          <leafValues>
            6.4905214309692383e-01 -2.3591935634613037e-01</leafValues></_>
        <_>
          <internalNodes>
            0 -1 13 -5.9685129672288895e-03</internalNodes>
          <leafValues>
            -8.0958706140518188e-01 2.3838366568088531e-01</leafValues></_>
        <_>
          <internalNodes>
            0 -1 8 -5.2764851599931717e-02</internalNodes>
          <leafValues>
            1.2302619218826294e-01 -8.2441532611846924e-01</leafValues></_>
        <_>
          <internalNodes>
            0 -1 38 2.4430846679024398e-05</internalNodes>
          <leafValues>
            -7.0596504211425781e-01 1.7244364321231842e-01</leafValues></_>
        <_>
          <internalNodes>
            0 -1 94 1.3524483074434102e-04</internalNodes>
          <leafValues>
            2.3155981302261353e-01 -7.6386052370071411e-01</leafValues></_>
        <_>
          <internalNodes>
            0 -1 149 6.7894265521317720e-04</internalNodes>
          <leafValues>
            -2.3791937530040741e-01 6.9383299350738525e-01</leafValues></_>
        <_>
          <internalNodes>
            0 -1 147 5.4813269525766373e-04</internalNodes>
          <leafValues>
            -2.0815181732177734e-01 7.0057582855224609e-01</leafValues></_></weakClassifiers></_>
    <!-- stage 10 -->
    <_>
      <maxWeakCount>15</maxWeakCount>
      <stageThreshold>-1.4567955732345581e+00</stageThreshold>
      <weakClassifiers>
        <_>
          <internalNodes>
            0 -1 133 5.3802658803761005e-03</internalNodes>
          <leafValues>
            -7.6315790414810181e-01 4.1836735606193542e-01</leafValues></_>
        <_>
          <internalNodes>
            0 -1 63 1.3958400813862681e-04</internalNodes>
          <leafValues>
            1.8287101387977600e-01 -7.9806125164031982e-01</leafValues></_>
        <_>
          <internalNodes>
            0 -1 123 4.5597869902849197e-03</internalNodes>
          <leafValues>
            -3.2973238825798035e-01 4.6417102217674255e-01</leafValues></_>
        <_>
          <internalNodes>
            0 -1 82 2.9396857134997845e-03</internalNodes>
          <leafValues>
            -5.7894903421401978e-01 2.5919285416603088e-01</leafValues></_>
        <_>
          <internalNodes>
            0 -1 89 4.2326301336288452e-02</internalNodes>
          <leafValues>
            -7.6680046319961548e-01 1.9102953374385834e-01</leafValues></_>
        <_>
          <internalNodes>
            0 -1 63 -6.8977649789303541e-05</internalNodes>
          <leafValues>
            -9.3032652139663696e-01 1.1561348289251328e-01</leafValues></_>
        <_>
          <internalNodes>
            0 -1 135 2.2745446767657995e-04</internalNodes>
          <leafValues>
            -2.4884276092052460e-01 6.1034947633743286e-01</leafValues></_>
        <_>
          <internalNodes>
            0 -1 90 -1.5362678095698357e-02</internalNodes>
          <leafValues>
            -8.0465292930603027e-01 1.8003012239933014e-01</leafValues></_>
        <_>
          <internalNodes>
            0 -1 56 -1.3860752806067467e-02</internalNodes>
          <leafValues>
            -7.9928636550903320e-01 1.3781325519084930e-01</leafValues></_>
        <_>
          <internalNodes>
            0 -1 61 -2.0665726624429226e-03</internalNodes>
          <leafValues>
            1.1634521186351776e-01 -8.8831317424774170e-01</leafValues></_>
        <_>
          <internalNodes>
            0 -1 102 -9.6925235993694514e-05</internalNodes>
          <leafValues>
            -8.8212740421295166e-01 1.1786814779043198e-01</leafValues></_>
        <_>
          <internalNodes>
            0 -1 35 -2.9745063511654735e-04</internalNodes>
          <leafValues>
            5.9501165151596069e-01 -2.4715746939182281e-01</leafValues></_>
        <_>
          <internalNodes>
            0 -1 32 5.0682865548878908e-04</internalNodes>
          <leafValues>
            -2.2306533157825470e-01 6.2314361333847046e-01</leafValues></_>
        <_>
          <internalNodes>
            0 -1 3 6.1783315613865852e-03</internalNodes>
          <leafValues>
            2.0858162641525269e-01 -7.3096227645874023e-01</leafValues></_>
        <_>
          <internalNodes>
            0 -1 33 -8.8003533892333508e-04</internalNodes>
          <leafValues>
            5.5154180526733398e-01 -2.5678458809852600e-01</leafValues></_></weakClassifiers></_>
    <!-- stage 11 -->
    <_>
      <maxWeakCount>17</maxWeakCount>
      <stageThreshold>-1.3803836107254028e+00</stageThreshold>
      <weakClassifiers>
        <_>
          <internalNodes>
            0 -1 64 1.6625400166958570e-04</internalNodes>
          <leafValues>
            4.1783344745635986e-01 -6.8724280595779419e-01</leafValues></_>
        <_>
          <internalNodes>
            0 -1 168 6.0833138413727283e-03</internalNodes>
          <leafValues>
            -4.1022306680679321e-01 3.6501365900039673e-01</leafValues></_>
        <_>
          <internalNodes>
            0 -1 51 1.6142165986821055e-04</internalNodes>
          <leafValues>
            -7.2875618934631348e-01 2.2613258659839630e-01</leafValues></_>
        <_>
          <internalNodes>
            0 -1 141 1.4430286362767220e-02</internalNodes>
          <leafValues>
            -8.2430714368820190e-01 9.2747136950492859e-02</leafValues></_>
        <_>
          <internalNodes>
            0 -1 120 -1.2212549336254597e-04</internalNodes>
          <leafValues>
            -5.7159399986267090e-01 2.2178623080253601e-01</leafValues></_>
        <_>
          <internalNodes>
            0 -1 72 -2.6811999268829823e-03</internalNodes>
          <leafValues>
            3.1411477923393250e-01 -4.3470251560211182e-01</leafValues></_>
        <_>
          <internalNodes>
            0 -1 14 -2.8277530800551176e-03</internalNodes>
          <leafValues>
            -7.6538270711898804e-01 1.2662523984909058e-01</leafValues></_>
        <_>
          <internalNodes>
            0 -1 178 -3.6170282401144505e-03</internalNodes>
          <leafValues>
            1.4347884058952332e-01 -7.0074051618576050e-01</leafValues></_>
        <_>
          <internalNodes>
            0 -1 96 7.6759388321079314e-05</internalNodes>
          <leafValues>
            8.3588927984237671e-02 -9.5995336771011353e-01</leafValues></_>
        <_>
          <internalNodes>
            0 -1 128 -5.5934139527380466e-03</internalNodes>
          <leafValues>
            -9.2603510618209839e-01 9.7266867756843567e-02</leafValues></_>
        <_>
          <internalNodes>
            0 -1 70 1.0759314754977822e-03</internalNodes>
          <leafValues>
            -3.1040683388710022e-01 3.9152178168296814e-01</leafValues></_>
        <_>
          <internalNodes>
            0 -1 112 2.3841210640966892e-03</internalNodes>
          <leafValues>
            -3.4184527397155762e-01 3.6759093403816223e-01</leafValues></_>
        <_>
          <internalNodes>
            0 -1 162 -8.2437600940465927e-04</internalNodes>
          <leafValues>
            5.7402378320693970e-01 -2.1920378506183624e-01</leafValues></_>
        <_>
          <internalNodes>
            0 -1 149 -1.2103338958695531e-03</internalNodes>
          <leafValues>
            7.8233820199966431e-01 -1.3802227377891541e-01</leafValues></_>
        <_>
          <internalNodes>
            0 -1 66 5.3322341955208685e-06</internalNodes>
          <leafValues>
            -6.8739545345306396e-01 1.8076522648334503e-01</leafValues></_>
        <_>
          <internalNodes>
            0 -1 139 5.6424856185913086e-02</internalNodes>
          <leafValues>
            1.2336100637912750e-01 -8.0398482084274292e-01</leafValues></_>
        <_>
          <internalNodes>
            0 -1 125 -2.1921074949204922e-03</internalNodes>
          <leafValues>
            5.1318818330764771e-01 -2.3662161827087402e-01</leafValues></_></weakClassifiers></_>
    <!-- stage 12 -->
    <_>
      <maxWeakCount>15</maxWeakCount>
      <stageThreshold>-1.2853252887725830e+00</stageThreshold>
      <weakClassifiers>
        <_>
          <internalNodes>
            0 -1 53 1.9202125258743763e-03</internalNodes>
          <leafValues>
            -8.6301368474960327e-01 3.6176064610481262e-01</leafValues></_>
        <_>
          <internalNodes>
            0 -1 101 7.4477604357525706e-05</internalNodes>
          <leafValues>
            2.6136508584022522e-01 -6.5724849700927734e-01</leafValues></_>
        <_>
          <internalNodes>
            0 -1 110 6.8500293418765068e-03</internalNodes>
          <leafValues>
            -3.0160462856292725e-01 5.1834863424301147e-01</leafValues></_>
        <_>
          <internalNodes>
            0 -1 131 3.1100612133741379e-02</internalNodes>
          <leafValues>
            -7.1544307470321655e-01 1.6655394434928894e-01</leafValues></_>
        <_>
          <internalNodes>
            0 -1 106 -5.0481613725423813e-02</internalNodes>
          <leafValues>
            -5.7204097509384155e-01 1.9118969142436981e-01</leafValues></_>
        <_>
          <internalNodes>
            0 -1 134 3.5807146923616529e-04</internalNodes>
          <leafValues>
            -2.3995245993137360e-01 5.2620321512222290e-01</leafValues></_>
        <_>
          <internalNodes>
            0 -1 86 2.6347037055529654e-04</internalNodes>
          <leafValues>
            1.4601734280586243e-01 -8.2590794563293457e-01</leafValues></_>
        <_>
          <internalNodes>
            0 -1 157 -2.2354219108819962e-03</internalNodes>
          <leafValues>
            4.7796237468719482e-01 -2.6001062989234924e-01</leafValues></_>
        <_>
          <internalNodes>
            0 -1 160 1.2320314999669790e-03</internalNodes>
          <leafValues>
            -1.8158082664012909e-01 7.5387591123580933e-01</leafValues></_>
        <_>
          <internalNodes>
            0 -1 173 7.8626594040542841e-04</internalNodes>
          <leafValues>
            -1.5067696571350098e-01 6.9523262977600098e-01</leafValues></_>
        <_>
          <internalNodes>
            0 -1 46 1.6647774726152420e-02</internalNodes>
          <leafValues>
            -6.8482160568237305e-01 2.0640964806079865e-01</leafValues></_>
        <_>
          <internalNodes>
            0 -1 180 8.4028113633394241e-04</internalNodes>
          <leafValues>
            -2.1459306776523590e-01 6.1888045072555542e-01</leafValues></_>
        <_>
          <internalNodes>
            0 -1 41 6.6496473737061024e-03</internalNodes>
          <leafValues>
            1.4227840304374695e-01 -9.3907356262207031e-01</leafValues></_>
        <_>
          <internalNodes>
            0 -1 1 -1.7761743068695068e-01</internalNodes>
          <leafValues>
            -8.9608675241470337e-01 8.1818163394927979e-02</leafValues></_>
        <_>
          <internalNodes>
            0 -1 5 -7.0318035781383514e-02</internalNodes>
          <leafValues>
            -6.6454553604125977e-01 1.5092800557613373e-01</leafValues></_></weakClassifiers></_>
    <!-- stage 13 -->
    <_>
      <maxWeakCount>19</maxWeakCount>
      <stageThreshold>-1.1653087139129639e+00</stageThreshold>
      <weakClassifiers>
        <_>
          <internalNodes>
            0 -1 29 9.3485992401838303e-03</internalNodes>
          <leafValues>
            -1.3910761475563049e-01 6.0381859540939331e-01</leafValues></_>
        <_>
          <internalNodes>
            0 -1 68 8.6850638035684824e-04</internalNodes>
          <leafValues>
            -5.4832458496093750e-01 2.6376900076866150e-01</leafValues></_>
        <_>
          <internalNodes>
            0 -1 64 -3.7614910979755223e-05</internalNodes>
          <leafValues>
            -8.7450814247131348e-01 1.1431796848773956e-01</leafValues></_>
        <_>
          <internalNodes>
            0 -1 150 4.7138039954006672e-03</internalNodes>
          <leafValues>
            -2.2430315613746643e-01 5.3635442256927490e-01</leafValues></_>
        <_>
          <internalNodes>
            0 -1 170 1.9173582550138235e-03</internalNodes>
          <leafValues>
            -1.7392820119857788e-01 7.8475600481033325e-01</leafValues></_>
        <_>
          <internalNodes>
            0 -1 132 9.1558229178190231e-03</internalNodes>
          <leafValues>
            2.0213824510574341e-01 -6.5776187181472778e-01</leafValues></_>
        <_>
          <internalNodes>
            0 -1 111 4.5952699147164822e-03</internalNodes>
          <leafValues>
            -8.0077546834945679e-01 1.4212863147258759e-01</leafValues></_>
        <_>
          <internalNodes>
            0 -1 166 -2.1655445452779531e-03</internalNodes>
          <leafValues>
            5.8813327550888062e-01 -2.0219631493091583e-01</leafValues></_>
        <_>
          <internalNodes>
            0 -1 64 1.2787722516804934e-04</internalNodes>
          <leafValues>
            1.7738039791584015e-01 -6.5544104576110840e-01</leafValues></_>
        <_>
          <internalNodes>
            0 -1 151 1.1400359217077494e-03</internalNodes>
          <leafValues>
            -2.1373791992664337e-01 5.2392947673797607e-01</leafValues></_>
        <_>
          <internalNodes>
            0 -1 60 -8.6846601334400475e-05</internalNodes>
          <leafValues>
            -9.5859295129776001e-01 1.4324407279491425e-01</leafValues></_>
        <_>
          <internalNodes>
            0 -1 58 5.1110349595546722e-03</internalNodes>
          <leafValues>
            -6.5531831979751587e-01 1.3533964753150940e-01</leafValues></_>
        <_>
          <internalNodes>
            0 -1 10 -3.0072254594415426e-04</internalNodes>
          <leafValues>
            1.9096429646015167e-01 -6.4808344841003418e-01</leafValues></_>
        <_>
          <internalNodes>
            0 -1 67 -6.9273076951503754e-03</internalNodes>
          <leafValues>
            4.7472897171974182e-01 -2.4185290932655334e-01</leafValues></_>
        <_>
          <internalNodes>
            0 -1 175 1.0429108515381813e-02</internalNodes>
          <leafValues>
            1.4175952970981598e-01 -7.6731091737747192e-01</leafValues></_>
        <_>
          <internalNodes>
            0 -1 9 -1.9995504990220070e-03</internalNodes>
          <leafValues>
            -7.0276719331741333e-01 1.2900449335575104e-01</leafValues></_>
        <_>
          <internalNodes>
            0 -1 71 -8.1965071149170399e-04</internalNodes>
          <leafValues>
            3.5171213746070862e-01 -2.9337948560714722e-01</leafValues></_>
        <_>
          <internalNodes>
            0 -1 7 -5.1728570833802223e-03</internalNodes>
          <leafValues>
            1.3708376884460449e-01 -7.3743909597396851e-01</leafValues></_>
        <_>
          <internalNodes>
            0 -1 104 -1.1285535583738238e-04</internalNodes>
          <leafValues>
            -3.1707289814949036e-01 3.2740005850791931e-01</leafValues></_></weakClassifiers></_>
    <!-- stage 14 -->
    <_>
      <maxWeakCount>14</maxWeakCount>
      <stageThreshold>-1.0646740198135376e+00</stageThreshold>
      <weakClassifiers>
        <_>
          <internalNodes>
            0 -1 116 1.9806427008006722e-04</internalNodes>
          <leafValues>
            4.5959594845771790e-01 -3.5436892509460449e-01</leafValues></_>
        <_>
          <internalNodes>
            0 -1 52 1.6320417821407318e-01</internalNodes>
          <leafValues>
            -3.8110184669494629e-01 3.2535573840141296e-01</leafValues></_>
        <_>
          <internalNodes>
            0 -1 179 3.9705960080027580e-04</internalNodes>
          <leafValues>
            -4.7039180994033813e-01 2.3095113039016724e-01</leafValues></_>
        <_>
          <internalNodes>
            0 -1 136 -3.1632203608751297e-02</internalNodes>
          <leafValues>
            -8.9360862970352173e-01 1.2095420062541962e-01</leafValues></_>
        <_>
          <internalNodes>
            0 -1 69 -9.0656592510640621e-04</internalNodes>
          <leafValues>
            7.3789805173873901e-01 -1.6041238605976105e-01</leafValues></_>
        <_>
          <internalNodes>
            0 -1 87 -9.6479976491536945e-05</internalNodes>
          <leafValues>
            -9.7039711475372314e-01 1.0534506291151047e-01</leafValues></_>
        <_>
          <internalNodes>
            0 -1 69 1.8238677512272261e-05</internalNodes>
          <leafValues>
            -3.2012200355529785e-01 3.4843552112579346e-01</leafValues></_>
        <_>
          <internalNodes>
            0 -1 176 1.4205819461494684e-03</internalNodes>
          <leafValues>
            -1.4192371070384979e-01 6.3784164190292358e-01</leafValues></_>
        <_>
          <internalNodes>
            0 -1 167 -1.7472086474299431e-03</internalNodes>
          <leafValues>
            6.2789458036422729e-01 -2.1392235159873962e-01</leafValues></_>
        <_>
          <internalNodes>
            0 -1 103 7.6257463661022484e-05</internalNodes>
          <leafValues>
            1.2715408205986023e-01 -8.0812931060791016e-01</leafValues></_>
        <_>
          <internalNodes>
            0 -1 121 5.8979589994123671e-06</internalNodes>
          <leafValues>
            -3.0178180336952209e-01 3.5868021845817566e-01</leafValues></_>
        <_>
          <internalNodes>
            0 -1 0 -9.7716145217418671e-02</internalNodes>
          <leafValues>
            -6.7738378047943115e-01 1.5779361128807068e-01</leafValues></_>
        <_>
          <internalNodes>
            0 -1 155 1.3532633893191814e-03</internalNodes>
          <leafValues>
            -2.0026715099811554e-01 5.4602265357971191e-01</leafValues></_>
        <_>
          <internalNodes>
            0 -1 158 4.7176732914522290e-04</internalNodes>
          <leafValues>
            -2.2181811928749084e-01 5.0088143348693848e-01</leafValues></_></weakClassifiers></_>
    <!-- stage 15 -->
    <_>
      <maxWeakCount>21</maxWeakCount>
      <stageThreshold>-1.3721283674240112e+00</stageThreshold>
      <weakClassifiers>
        <_>
          <internalNodes>
            0 -1 108 4.6770639717578888e-02</internalNodes>
          <leafValues>
            -6.4999997615814209e-01 3.7857142090797424e-01</leafValues></_>
        <_>
          <internalNodes>
            0 -1 137 1.4354471204569563e-05</internalNodes>
          <leafValues>
            -3.2443866133689880e-01 3.6230930685997009e-01</leafValues></_>
        <_>
          <internalNodes>
            0 -1 140 -2.2730533964931965e-03</internalNodes>
          <leafValues>
            1.6912668943405151e-01 -7.9905980825424194e-01</leafValues></_>
        <_>
          <internalNodes>
            0 -1 45 -8.8392209727317095e-04</internalNodes>
          <leafValues>
            3.3171159029006958e-01 -3.2285138964653015e-01</leafValues></_>
        <_>
          <internalNodes>
            0 -1 27 2.8744200244545937e-02</internalNodes>
          <leafValues>
            1.6122329235076904e-01 -6.5194773674011230e-01</leafValues></_>
        <_>
          <internalNodes>
            0 -1 174 -8.5951306391507387e-04</internalNodes>
          <leafValues>
            6.0922443866729736e-01 -1.6400992870330811e-01</leafValues></_>
        <_>
          <internalNodes>
            0 -1 174 5.7813443709164858e-04</internalNodes>
          <leafValues>
            -2.5334075093269348e-01 5.2110707759857178e-01</leafValues></_>
        <_>
          <internalNodes>
            0 -1 181 -1.0615089908242226e-02</internalNodes>
          <leafValues>
            -9.0901368856430054e-01 1.4998753368854523e-01</leafValues></_>
        <_>
          <internalNodes>
            0 -1 84 1.6499776393175125e-04</internalNodes>
          <leafValues>
            9.2153921723365784e-02 -9.6204453706741333e-01</leafValues></_>
        <_>
          <internalNodes>
            0 -1 114 1.3252289965748787e-02</internalNodes>
          <leafValues>
            -7.2562956809997559e-01 9.9246039986610413e-02</leafValues></_>
        <_>
          <internalNodes>
            0 -1 146 -1.5242627821862698e-02</internalNodes>
          <leafValues>
            -6.5005034208297729e-01 1.2791451811790466e-01</leafValues></_>
        <_>
          <internalNodes>
            0 -1 105 2.6996756787411869e-05</internalNodes>
          <leafValues>
            -1.8960940837860107e-01 5.1078641414642334e-01</leafValues></_>
        <_>
          <internalNodes>
            0 -1 69 -8.8240782497450709e-04</internalNodes>
          <leafValues>
            6.8240582942962646e-01 -1.4913886785507202e-01</leafValues></_>
        <_>
          <internalNodes>
            0 -1 129 5.0099674612283707e-02</internalNodes>
          <leafValues>
            1.3271741569042206e-01 -8.8749206066131592e-01</leafValues></_>
        <_>
          <internalNodes>
            0 -1 159 2.0106700249016285e-03</internalNodes>
          <leafValues>
            -1.7731641232967377e-01 6.0886377096176147e-01</leafValues></_>
        <_>
          <internalNodes>
            0 -1 172 -6.6135916858911514e-04</internalNodes>
          <leafValues>
            5.8961892127990723e-01 -1.6603465378284454e-01</leafValues></_>
        <_>
          <internalNodes>
            0 -1 6 -2.2634873166680336e-02</internalNodes>
          <leafValues>
            -7.5064468383789062e-01 1.5289796888828278e-01</leafValues></_>
        <_>
          <internalNodes>
            0 -1 24 -3.8914166390895844e-02</internalNodes>
          <leafValues>
            -5.8495616912841797e-01 1.8007963895797729e-01</leafValues></_>
        <_>
          <internalNodes>
            0 -1 153 1.0424174834042788e-03</internalNodes>
          <leafValues>
            -1.9726061820983887e-01 5.5816525220870972e-01</leafValues></_>
        <_>
          <internalNodes>
            0 -1 74 -1.2938200961798429e-04</internalNodes>
          <leafValues>
            -8.6661875247955322e-01 1.1988323926925659e-01</leafValues></_>
        <_>
          <internalNodes>
            0 -1 113 1.6621066024526954e-03</internalNodes>
          <leafValues>
            -2.2374282777309418e-01 4.9753919243812561e-01</leafValues></_></weakClassifiers></_>
    <!-- stage 16 -->
    <_>
      <maxWeakCount>21</maxWeakCount>
      <stageThreshold>-1.1275453567504883e+00</stageThreshold>
      <weakClassifiers>
        <_>
          <internalNodes>
            0 -1 138 8.1934034824371338e-03</internalNodes>
          <leafValues>
            -4.9180328845977783e-01 3.8348081707954407e-01</leafValues></_>
        <_>
          <internalNodes>
            0 -1 18 2.4267566914204508e-05</internalNodes>
          <leafValues>
            -3.6076161265373230e-01 2.9983770847320557e-01</leafValues></_>
        <_>
          <internalNodes>
            0 -1 73 6.4786836446728557e-05</internalNodes>
          <leafValues>
            2.0854540169239044e-01 -6.1425799131393433e-01</leafValues></_>
        <_>
          <internalNodes>
            0 -1 50 8.1911700544878840e-04</internalNodes>
          <leafValues>
            -4.2030817270278931e-01 3.3157673478126526e-01</leafValues></_>
        <_>
          <internalNodes>
            0 -1 82 4.3645980767905712e-03</internalNodes>
          <leafValues>
            -4.3463969230651855e-01 2.2398206591606140e-01</leafValues></_>
        <_>
          <internalNodes>
            0 -1 177 2.9695762350456789e-05</internalNodes>
          <leafValues>
            -5.3514438867568970e-01 2.0380422472953796e-01</leafValues></_>
        <_>
          <internalNodes>
            0 -1 117 9.6598509117029607e-05</internalNodes>
          <leafValues>
            1.2031913548707962e-01 -7.7237880229949951e-01</leafValues></_>
        <_>
          <internalNodes>
            0 -1 152 -1.3450503502099309e-05</internalNodes>
          <leafValues>
            3.7587255239486694e-01 -2.6147997379302979e-01</leafValues></_>
        <_>
          <internalNodes>
            0 -1 169 1.0530235245823860e-02</internalNodes>
          <leafValues>
            -8.8009434938430786e-01 1.0470020025968552e-01</leafValues></_>
        <_>
          <internalNodes>
            0 -1 83 -2.4256718461401761e-04</internalNodes>
          <leafValues>
            -8.9963769912719727e-01 6.7703820765018463e-02</leafValues></_>
        <_>
          <internalNodes>
            0 -1 26 -8.4307265933603048e-04</internalNodes>
          <leafValues>
            7.3304128646850586e-01 -1.4843435585498810e-01</leafValues></_>
        <_>
          <internalNodes>
            0 -1 163 4.2478551040403545e-04</internalNodes>
          <leafValues>
            -1.9051542878150940e-01 5.0085669755935669e-01</leafValues></_>
        <_>
          <internalNodes>
            0 -1 163 -2.9898926732130349e-04</internalNodes>
          <leafValues>
            4.5129969716072083e-01 -2.9467183351516724e-01</leafValues></_>
        <_>
          <internalNodes>
            0 -1 28 -2.9228534549474716e-03</internalNodes>
          <leafValues>
            -5.7011067867279053e-01 1.8355622887611389e-01</leafValues></_>
        <_>
          <internalNodes>
            0 -1 2 1.1714004358509555e-04</internalNodes>
          <leafValues>
            -3.5295867919921875e-01 2.7544218301773071e-01</leafValues></_>
        <_>
          <internalNodes>
            0 -1 4 7.9200901091098785e-03</internalNodes>
          <leafValues>
            1.5434142947196960e-01 -6.5306794643402100e-01</leafValues></_>
        <_>
          <internalNodes>
            0 -1 81 7.2207483754027635e-05</internalNodes>
          <leafValues>
            1.1357186734676361e-01 -8.1882476806640625e-01</leafValues></_>
        <_>
          <internalNodes>
            0 -1 126 3.4712493419647217e-02</internalNodes>
          <leafValues>
            7.6643019914627075e-02 -8.9926874637603760e-01</leafValues></_>
        <_>
          <internalNodes>
            0 -1 23 7.6185413636267185e-03</internalNodes>
          <leafValues>
            1.0581544786691666e-01 -7.4827647209167480e-01</leafValues></_>
        <_>
          <internalNodes>
            0 -1 49 1.8026425968855619e-03</internalNodes>
          <leafValues>
            -1.7159035801887512e-01 7.1446388959884644e-01</leafValues></_>
        <_>
          <internalNodes>
            0 -1 178 -2.4882214143872261e-02</internalNodes>
          <leafValues>
            -6.1497712135314941e-01 1.9225190579891205e-01</leafValues></_></weakClassifiers></_></stages>
  <features>
    <_>
      <rects>
        <_>
          1 8 12 21 -1.</_>
        <_>
          5 15 4 7 9.</_></rects>
      <tilted>0</tilted></_>
    <_>
      <rects>
        <_>
          1 13 23 20 -1.</_>
        <_>
          1 23 23 10 2.</_></rects>
      <tilted>0</tilted></_>
    <_>
      <rects>
        <_>
          1 21 10 2 -1.</_>
        <_>
          1 22 10 1 2.</_></rects>
      <tilted>0</tilted></_>
    <_>
      <rects>
        <_>
          1 26 5 9 -1.</_>
        <_>
          1 29 5 3 3.</_></rects>
      <tilted>0</tilted></_>
    <_>
      <rects>
        <_>
          1 30 17 6 -1.</_>
        <_>
          1 32 17 2 3.</_></rects>
      <tilted>0</tilted></_>
    <_>
      <rects>
        <_>
          2 5 9 24 -1.</_>
        <_>
          5 13 3 8 9.</_></rects>
      <tilted>0</tilted></_>
    <_>
      <rects>
        <_>
          2 13 15 14 -1.</_>
        <_>
          2 20 15 7 2.</_></rects>
      <tilted>0</tilted></_>
    <_>
      <rects>
        <_>
          2 15 16 16 -1.</_>
        <_>
          2 23 16 8 2.</_></rects>
      <tilted>0</tilted></_>
    <_>
      <rects>
        <_>
          2 19 21 14 -1.</_>
        <_>
          2 26 21 7 2.</_></rects>
      <tilted>0</tilted></_>
    <_>
      <rects>
        <_>
          2 24 4 4 -1.</_>
        <_>
          2 26 4 2 2.</_></rects>
      <tilted>0</tilted></_>
    <_>
      <rects>
        <_>
          3 16 9 8 -1.</_>
        <_>
          6 16 3 8 3.</_></rects>
      <tilted>0</tilted></_>
    <_>
      <rects>
        <_>
          3 19 8 7 -1.</_>
        <_>
          5 19 4 7 2.</_></rects>
      <tilted>0</tilted></_>
    <_>
      <rects>
        <_>
          3 21 10 12 -1.</_>
        <_>
          3 21 5 6 2.</_>
        <_>
          8 27 5 6 2.</_></rects>
      <tilted>0</tilted></_>
    <_>
      <rects>
        <_>
          3 24 4 8 -1.</_>
        <_>
          3 28 4 4 2.</_></rects>
      <tilted>0</tilted></_>
    <_>
      <rects>
        <_>
          3 25 3 6 -1.</_>
        <_>
          3 28 3 3 2.</_></rects>
      <tilted>0</tilted></_>
    <_>
      <rects>
        <_>
          4 18 15 12 -1.</_>
        <_>
          9 22 5 4 9.</_></rects>
      <tilted>0</tilted></_>
    <_>
      <rects>
        <_>
          4 21 8 10 -1.</_>
        <_>
          4 21 4 5 2.</_>
        <_>
          8 26 4 5 2.</_></rects>
      <tilted>0</tilted></_>
    <_>
      <rects>
        <_>
          4 24 15 3 -1.</_>
        <_>
          9 25 5 1 9.</_></rects>
      <tilted>0</tilted></_>
    <_>
      <rects>
        <_>
          5 1 15 6 -1.</_>
        <_>
          5 4 15 3 2.</_></rects>
      <tilted>0</tilted></_>
    <_>
      <rects>
        <_>
          5 14 12 18 -1.</_>
        <_>
          9 20 4 6 9.</_></rects>
      <tilted>0</tilted></_>
    <_>
      <rects>
        <_>
          5 19 12 9 -1.</_>
        <_>
          9 22 4 3 9.</_></rects>
      <tilted>0</tilted></_>
    <_>
      <rects>
        <_>
          5 20 8 14 -1.</_>
        <_>
          5 20 4 7 2.</_>
        <_>
          9 27 4 7 2.</_></rects>
      <tilted>0</tilted></_>
    <_>
      <rects>
        <_>
          5 21 12 6 -1.</_>
        <_>
          9 23 4 2 9.</_></rects>
      <tilted>0</tilted></_>
    <_>
      <rects>
        <_>
          5 23 8 3 -1.</_>
        <_>
          7 25 4 3 2.</_></rects>
      <tilted>1</tilted></_>
    <_>
      <rects>
        <_>
          6 7 6 18 -1.</_>
        <_>
          8 13 2 6 9.</_></rects>
      <tilted>0</tilted></_>
    <_>
      <rects>
        <_>
          6 9 9 27 -1.</_>
        <_>
          9 18 3 9 9.</_></rects>
      <tilted>0</tilted></_>
    <_>
      <rects>
        <_>
          6 16 2 2 -1.</_>
        <_>
          6 16 1 1 2.</_>
        <_>
          7 17 1 1 2.</_></rects>
      <tilted>0</tilted></_>
    <_>
      <rects>
        <_>
          6 16 10 10 -1.</_>
        <_>
          6 21 10 5 2.</_></rects>
      <tilted>0</tilted></_>
    <_>
      <rects>
        <_>
          6 22 1 12 -1.</_>
        <_>
          6 28 1 6 2.</_></rects>
      <tilted>0</tilted></_>
    <_>
      <rects>
        <_>
          6 22 4 5 -1.</_>
        <_>
          8 22 2 5 2.</_></rects>
      <tilted>0</tilted></_>
    <_>
      <rects>
        <_>
          6 23 12 3 -1.</_>
        <_>
          10 23 4 3 3.</_></rects>
      <tilted>0</tilted></_>
    <_>
      <rects>
        <_>
          6 23 14 8 -1.</_>
        <_>
          6 27 14 4 2.</_></rects>
      <tilted>0</tilted></_>
    <_>
      <rects>
        <_>
          7 16 1 3 -1.</_>
        <_>
          7 17 1 1 3.</_></rects>
      <tilted>0</tilted></_>
    <_>
      <rects>
        <_>
          7 16 2 3 -1.</_>
        <_>
          7 17 2 1 3.</_></rects>
      <tilted>0</tilted></_>
    <_>
      <rects>
        <_>
          7 16 12 18 -1.</_>
        <_>
          7 25 12 9 2.</_></rects>
      <tilted>0</tilted></_>
    <_>
      <rects>
        <_>
          7 17 2 2 -1.</_>
        <_>
          7 17 1 1 2.</_>
        <_>
          8 18 1 1 2.</_></rects>
      <tilted>0</tilted></_>
    <_>
      <rects>
        <_>
          7 19 7 6 -1.</_>
        <_>
          5 21 7 2 3.</_></rects>
      <tilted>1</tilted></_>
    <_>
      <rects>
        <_>
          7 20 8 6 -1.</_>
        <_>
          9 20 4 6 2.</_></rects>
      <tilted>0</tilted></_>
    <_>
      <rects>
        <_>
          7 20 7 4 -1.</_>
        <_>
          7 22 7 2 2.</_></rects>
      <tilted>0</tilted></_>
    <_>
      <rects>
        <_>
          7 21 9 3 -1.</_>
        <_>
          10 22 3 1 9.</_></rects>
      <tilted>0</tilted></_>
    <_>
      <rects>
        <_>
          7 22 9 4 -1.</_>
        <_>
          10 22 3 4 3.</_></rects>
      <tilted>0</tilted></_>
    <_>
      <rects>
        <_>
          7 26 6 2 -1.</_>
        <_>
          9 28 2 2 3.</_></rects>
      <tilted>1</tilted></_>
    <_>
      <rects>
        <_>
          8 3 6 36 -1.</_>
        <_>
          10 15 2 12 9.</_></rects>
      <tilted>0</tilted></_>
    <_>
      <rects>
        <_>
          8 12 13 20 -1.</_>
        <_>
          8 17 13 10 2.</_></rects>
      <tilted>0</tilted></_>
    <_>
      <rects>
        <_>
          8 18 14 12 -1.</_>
        <_>
          8 22 14 4 3.</_></rects>
      <tilted>0</tilted></_>
    <_>
      <rects>
        <_>
          8 19 4 6 -1.</_>
        <_>
          8 19 2 3 2.</_>
        <_>
          10 22 2 3 2.</_></rects>
      <tilted>0</tilted></_>
    <_>
      <rects>
        <_>
          8 19 6 9 -1.</_>
        <_>
          10 22 2 3 9.</_></rects>
      <tilted>0</tilted></_>
    <_>
      <rects>
        <_>
          8 19 6 6 -1.</_>
        <_>
          8 22 6 3 2.</_></rects>
      <tilted>0</tilted></_>
    <_>
      <rects>
        <_>
          8 20 6 1 -1.</_>
        <_>
          10 20 2 1 3.</_></rects>
      <tilted>0</tilted></_>
    <_>
      <rects>
        <_>
          8 21 6 6 -1.</_>
        <_>
          8 24 6 3 2.</_></rects>
      <tilted>0</tilted></_>
    <_>
      <rects>
        <_>
          8 21 7 4 -1.</_>
        <_>
          8 23 7 2 2.</_></rects>
      <tilted>0</tilted></_>
    <_>
      <rects>
        <_>
          8 24 6 3 -1.</_>
        <_>
          10 24 2 3 3.</_></rects>
      <tilted>0</tilted></_>
    <_>
      <rects>
        <_>
          9 5 6 33 -1.</_>
        <_>
          11 16 2 11 9.</_></rects>
      <tilted>0</tilted></_>
    <_>
      <rects>
        <_>
          9 13 4 12 -1.</_>
        <_>
          9 19 4 6 2.</_></rects>
      <tilted>0</tilted></_>
    <_>
      <rects>
        <_>
          9 13 13 8 -1.</_>
        <_>
          9 13 13 4 2.</_></rects>
      <tilted>1</tilted></_>
    <_>
      <rects>
        <_>
          9 17 4 8 -1.</_>
        <_>
          9 21 4 4 2.</_></rects>
      <tilted>0</tilted></_>
    <_>
      <rects>
        <_>
          9 17 14 8 -1.</_>
        <_>
          9 21 14 4 2.</_></rects>
      <tilted>0</tilted></_>
    <_>
      <rects>
        <_>
          9 19 9 14 -1.</_>
        <_>
          9 26 9 7 2.</_></rects>
      <tilted>0</tilted></_>
    <_>
      <rects>
        <_>
          9 20 6 6 -1.</_>
        <_>
          11 22 2 2 9.</_></rects>
      <tilted>0</tilted></_>
    <_>
      <rects>
        <_>
          9 21 8 3 -1.</_>
        <_>
          13 21 4 3 2.</_></rects>
      <tilted>0</tilted></_>
    <_>
      <rects>
        <_>
          9 22 3 2 -1.</_>
        <_>
          10 22 1 2 3.</_></rects>
      <tilted>0</tilted></_>
    <_>
      <rects>
        <_>
          9 22 8 3 -1.</_>
        <_>
          13 22 4 3 2.</_></rects>
      <tilted>0</tilted></_>
    <_>
      <rects>
        <_>
          9 23 2 1 -1.</_>
        <_>
          10 23 1 1 2.</_></rects>
      <tilted>0</tilted></_>
    <_>
      <rects>
        <_>
          9 23 3 1 -1.</_>
        <_>
          10 23 1 1 3.</_></rects>
      <tilted>0</tilted></_>
    <_>
      <rects>
        <_>
          9 23 4 1 -1.</_>
        <_>
          10 23 2 1 2.</_></rects>
      <tilted>0</tilted></_>
    <_>
      <rects>
        <_>
          9 24 2 1 -1.</_>
        <_>
          10 24 1 1 2.</_></rects>
      <tilted>0</tilted></_>
    <_>
      <rects>
        <_>
          9 24 6 5 -1.</_>
        <_>
          11 24 2 5 3.</_></rects>
      <tilted>0</tilted></_>
    <_>
      <rects>
        <_>
          9 24 6 3 -1.</_>
        <_>
          8 25 6 1 3.</_></rects>
      <tilted>1</tilted></_>
    <_>
      <rects>
        <_>
          10 13 9 12 -1.</_>
        <_>
          10 16 9 6 2.</_></rects>
      <tilted>0</tilted></_>
    <_>
      <rects>
        <_>
          10 14 2 2 -1.</_>
        <_>
          10 14 1 1 2.</_>
        <_>
          11 15 1 1 2.</_></rects>
      <tilted>0</tilted></_>
    <_>
      <rects>
        <_>
          10 16 3 3 -1.</_>
        <_>
          11 17 1 1 9.</_></rects>
      <tilted>0</tilted></_>
    <_>
      <rects>
        <_>
          10 18 4 4 -1.</_>
        <_>
          10 18 2 2 2.</_>
        <_>
          12 20 2 2 2.</_></rects>
      <tilted>0</tilted></_>
    <_>
      <rects>
        <_>
          10 19 9 6 -1.</_>
        <_>
          13 19 3 6 3.</_></rects>
      <tilted>0</tilted></_>
    <_>
      <rects>
        <_>
          10 21 1 2 -1.</_>
        <_>
          10 22 1 1 2.</_></rects>
      <tilted>0</tilted></_>
    <_>
      <rects>
        <_>
          10 21 2 3 -1.</_>
        <_>
          10 22 2 1 3.</_></rects>
      <tilted>0</tilted></_>
    <_>
      <rects>
        <_>
          10 22 1 2 -1.</_>
        <_>
          10 23 1 1 2.</_></rects>
      <tilted>0</tilted></_>
    <_>
      <rects>
        <_>
          10 22 3 1 -1.</_>
        <_>
          11 22 1 1 3.</_></rects>
      <tilted>0</tilted></_>
    <_>
      <rects>
        <_>
          10 22 1 3 -1.</_>
        <_>
          10 23 1 1 3.</_></rects>
      <tilted>0</tilted></_>
    <_>
      <rects>
        <_>
          10 22 3 3 -1.</_>
        <_>
          11 23 1 1 9.</_></rects>
      <tilted>0</tilted></_>
    <_>
      <rects>
        <_>
          10 22 4 2 -1.</_>
        <_>
          11 22 2 2 2.</_></rects>
      <tilted>0</tilted></_>
    <_>
      <rects>
        <_>
          10 22 3 3 -1.</_>
        <_>
          11 22 1 3 3.</_></rects>
      <tilted>0</tilted></_>
    <_>
      <rects>
        <_>
          10 22 2 2 -1.</_>
        <_>
          10 23 2 1 2.</_></rects>
      <tilted>0</tilted></_>
    <_>
      <rects>
        <_>
          10 22 6 3 -1.</_>
        <_>
          12 23 2 1 9.</_></rects>
      <tilted>0</tilted></_>
    <_>
      <rects>
        <_>
          10 22 3 3 -1.</_>
        <_>
          10 23 3 1 3.</_></rects>
      <tilted>0</tilted></_>
    <_>
      <rects>
        <_>
          10 23 3 1 -1.</_>
        <_>
          11 23 1 1 3.</_></rects>
      <tilted>0</tilted></_>
    <_>
      <rects>
        <_>
          10 23 4 1 -1.</_>
        <_>
          11 23 2 1 2.</_></rects>
      <tilted>0</tilted></_>
    <_>
      <rects>
        <_>
          10 23 3 2 -1.</_>
        <_>
          11 23 1 2 3.</_></rects>
      <tilted>0</tilted></_>
    <_>
      <rects>
        <_>
          10 24 2 1 -1.</_>
        <_>
          11 24 1 1 2.</_></rects>
      <tilted>0</tilted></_>
    <_>
      <rects>
        <_>
          11 10 7 21 -1.</_>
        <_>
          11 17 7 7 3.</_></rects>
      <tilted>0</tilted></_>
    <_>
      <rects>
        <_>
          11 11 8 21 -1.</_>
        <_>
          11 18 8 7 3.</_></rects>
      <tilted>0</tilted></_>
    <_>
      <rects>
        <_>
          11 11 9 10 -1.</_>
        <_>
          11 11 9 5 2.</_></rects>
      <tilted>1</tilted></_>
    <_>
      <rects>
        <_>
          11 18 10 6 -1.</_>
        <_>
          16 18 5 6 2.</_></rects>
      <tilted>0</tilted></_>
    <_>
      <rects>
        <_>
          11 18 9 3 -1.</_>
        <_>
          11 19 9 1 3.</_></rects>
      <tilted>0</tilted></_>
    <_>
      <rects>
        <_>
          11 21 1 2 -1.</_>
        <_>
          11 22 1 1 2.</_></rects>
      <tilted>0</tilted></_>
    <_>
      <rects>
        <_>
          11 21 1 4 -1.</_>
        <_>
          11 22 1 2 2.</_></rects>
      <tilted>0</tilted></_>
    <_>
      <rects>
        <_>
          11 21 6 5 -1.</_>
        <_>
          14 21 3 5 2.</_></rects>
      <tilted>0</tilted></_>
    <_>
      <rects>
        <_>
          11 22 1 2 -1.</_>
        <_>
          11 23 1 1 2.</_></rects>
      <tilted>0</tilted></_>
    <_>
      <rects>
        <_>
          11 22 1 3 -1.</_>
        <_>
          11 23 1 1 3.</_></rects>
      <tilted>0</tilted></_>
    <_>
      <rects>
        <_>
          11 22 3 3 -1.</_>
        <_>
          12 23 1 1 9.</_></rects>
      <tilted>0</tilted></_>
    <_>
      <rects>
        <_>
          11 22 2 2 -1.</_>
        <_>
          12 22 1 2 2.</_></rects>
      <tilted>0</tilted></_>
    <_>
      <rects>
        <_>
          11 22 6 4 -1.</_>
        <_>
          14 22 3 4 2.</_></rects>
      <tilted>0</tilted></_>
    <_>
      <rects>
        <_>
          11 23 3 1 -1.</_>
        <_>
          12 23 1 1 3.</_></rects>
      <tilted>0</tilted></_>
    <_>
      <rects>
        <_>
          11 23 2 2 -1.</_>
        <_>
          11 23 1 1 2.</_>
        <_>
          12 24 1 1 2.</_></rects>
      <tilted>0</tilted></_>
    <_>
      <rects>
        <_>
          11 23 2 2 -1.</_>
        <_>
          12 23 1 2 2.</_></rects>
      <tilted>0</tilted></_>
    <_>
      <rects>
        <_>
          11 25 1 2 -1.</_>
        <_>
          11 26 1 1 2.</_></rects>
      <tilted>0</tilted></_>
    <_>
      <rects>
        <_>
          11 27 4 2 -1.</_>
        <_>
          11 28 4 1 2.</_></rects>
      <tilted>0</tilted></_>
    <_>
      <rects>
        <_>
          12 7 11 12 -1.</_>
        <_>
          12 7 11 6 2.</_></rects>
      <tilted>1</tilted></_>
    <_>
      <rects>
        <_>
          12 11 12 9 -1.</_>
        <_>
          16 15 4 9 3.</_></rects>
      <tilted>1</tilted></_>
    <_>
      <rects>
        <_>
          12 12 12 11 -1.</_>
        <_>
          16 16 4 11 3.</_></rects>
      <tilted>1</tilted></_>
    <_>
      <rects>
        <_>
          12 14 5 8 -1.</_>
        <_>
          12 16 5 4 2.</_></rects>
      <tilted>0</tilted></_>
    <_>
      <rects>
        <_>
          12 16 8 6 -1.</_>
        <_>
          12 16 4 3 2.</_>
        <_>
          16 19 4 3 2.</_></rects>
      <tilted>0</tilted></_>
    <_>
      <rects>
        <_>
          12 16 8 15 -1.</_>
        <_>
          12 21 8 5 3.</_></rects>
      <tilted>0</tilted></_>
    <_>
      <rects>
        <_>
          12 17 3 8 -1.</_>
        <_>
          13 18 1 8 3.</_></rects>
      <tilted>1</tilted></_>
    <_>
      <rects>
        <_>
          12 18 5 2 -1.</_>
        <_>
          12 19 5 1 2.</_></rects>
      <tilted>0</tilted></_>
    <_>
      <rects>
        <_>
          12 18 6 6 -1.</_>
        <_>
          10 20 6 2 3.</_></rects>
      <tilted>1</tilted></_>
    <_>
      <rects>
        <_>
          12 21 1 2 -1.</_>
        <_>
          12 21 1 1 2.</_></rects>
      <tilted>1</tilted></_>
    <_>
      <rects>
        <_>
          12 21 1 3 -1.</_>
        <_>
          11 22 1 1 3.</_></rects>
      <tilted>1</tilted></_>
    <_>
      <rects>
        <_>
          12 22 1 3 -1.</_>
        <_>
          12 23 1 1 3.</_></rects>
      <tilted>0</tilted></_>
    <_>
      <rects>
        <_>
          12 22 1 2 -1.</_>
        <_>
          12 22 1 1 2.</_></rects>
      <tilted>1</tilted></_>
    <_>
      <rects>
        <_>
          12 23 1 2 -1.</_>
        <_>
          12 24 1 1 2.</_></rects>
      <tilted>0</tilted></_>
    <_>
      <rects>
        <_>
          12 24 2 1 -1.</_>
        <_>
          13 24 1 1 2.</_></rects>
      <tilted>0</tilted></_>
    <_>
      <rects>
        <_>
          12 29 1 3 -1.</_>
        <_>
          12 30 1 1 3.</_></rects>
      <tilted>0</tilted></_>
    <_>
      <rects>
        <_>
          12 32 9 12 -1.</_>
        <_>
          12 38 9 6 2.</_></rects>
      <tilted>0</tilted></_>
    <_>
      <rects>
        <_>
          13 14 3 8 -1.</_>
        <_>
          13 16 3 4 2.</_></rects>
      <tilted>0</tilted></_>
    <_>
      <rects>
        <_>
          13 15 8 10 -1.</_>
        <_>
          13 15 8 5 2.</_></rects>
      <tilted>1</tilted></_>
    <_>
      <rects>
        <_>
          13 20 6 4 -1.</_>
        <_>
          13 21 6 2 2.</_></rects>
      <tilted>0</tilted></_>
    <_>
      <rects>
        <_>
          14 9 8 12 -1.</_>
        <_>
          14 9 8 6 2.</_></rects>
      <tilted>1</tilted></_>
    <_>
      <rects>
        <_>
          14 13 5 12 -1.</_>
        <_>
          14 16 5 6 2.</_></rects>
      <tilted>0</tilted></_>
    <_>
      <rects>
        <_>
          14 15 8 10 -1.</_>
        <_>
          14 15 8 5 2.</_></rects>
      <tilted>1</tilted></_>
    <_>
      <rects>
        <_>
          14 17 10 15 -1.</_>
        <_>
          14 22 10 5 3.</_></rects>
      <tilted>0</tilted></_>
    <_>
      <rects>
        <_>
          14 18 8 7 -1.</_>
        <_>
          16 18 4 7 2.</_></rects>
      <tilted>0</tilted></_>
    <_>
      <rects>
        <_>
          14 18 8 9 -1.</_>
        <_>
          14 18 4 9 2.</_></rects>
      <tilted>1</tilted></_>
    <_>
      <rects>
        <_>
          14 19 8 1 -1.</_>
        <_>
          14 19 4 1 2.</_></rects>
      <tilted>1</tilted></_>
    <_>
      <rects>
        <_>
          14 19 6 6 -1.</_>
        <_>
          12 21 6 2 3.</_></rects>
      <tilted>1</tilted></_>
    <_>
      <rects>
        <_>
          14 21 2 4 -1.</_>
        <_>
          15 21 1 4 2.</_></rects>
      <tilted>0</tilted></_>
    <_>
      <rects>
        <_>
          14 22 2 2 -1.</_>
        <_>
          15 22 1 2 2.</_></rects>
      <tilted>0</tilted></_>
    <_>
      <rects>
        <_>
          14 22 5 10 -1.</_>
        <_>
          14 27 5 5 2.</_></rects>
      <tilted>0</tilted></_>
    <_>
      <rects>
        <_>
          14 29 3 3 -1.</_>
        <_>
          15 30 1 1 9.</_></rects>
      <tilted>0</tilted></_>
    <_>
      <rects>
        <_>
          15 11 6 21 -1.</_>
        <_>
          15 18 6 7 3.</_></rects>
      <tilted>0</tilted></_>
    <_>
      <rects>
        <_>
          15 14 9 15 -1.</_>
        <_>
          15 19 9 5 3.</_></rects>
      <tilted>0</tilted></_>
    <_>
      <rects>
        <_>
          15 17 3 6 -1.</_>
        <_>
          15 17 3 3 2.</_></rects>
      <tilted>1</tilted></_>
    <_>
      <rects>
        <_>
          15 17 8 5 -1.</_>
        <_>
          15 17 4 5 2.</_></rects>
      <tilted>1</tilted></_>
    <_>
      <rects>
        <_>
          15 18 3 3 -1.</_>
        <_>
          16 19 1 1 9.</_></rects>
      <tilted>0</tilted></_>
    <_>
      <rects>
        <_>
          15 18 2 3 -1.</_>
        <_>
          15 19 2 1 3.</_></rects>
      <tilted>0</tilted></_>
    <_>
      <rects>
        <_>
          15 19 2 6 -1.</_>
        <_>
          16 19 1 6 2.</_></rects>
      <tilted>0</tilted></_>
    <_>
      <rects>
        <_>
          15 19 4 2 -1.</_>
        <_>
          15 19 2 1 2.</_>
        <_>
          17 20 2 1 2.</_></rects>
      <tilted>0</tilted></_>
    <_>
      <rects>
        <_>
          15 20 9 12 -1.</_>
        <_>
          15 23 9 6 2.</_></rects>
      <tilted>0</tilted></_>
    <_>
      <rects>
        <_>
          15 22 2 2 -1.</_>
        <_>
          15 22 1 1 2.</_>
        <_>
          16 23 1 1 2.</_></rects>
      <tilted>0</tilted></_>
    <_>
      <rects>
        <_>
          15 22 1 3 -1.</_>
        <_>
          14 23 1 1 3.</_></rects>
      <tilted>1</tilted></_>
    <_>
      <rects>
        <_>
          15 23 2 2 -1.</_>
        <_>
          15 23 1 1 2.</_>
        <_>
          16 24 1 1 2.</_></rects>
      <tilted>0</tilted></_>
    <_>
      <rects>
        <_>
          15 23 3 3 -1.</_>
        <_>
          16 24 1 1 9.</_></rects>
      <tilted>0</tilted></_>
    <_>
      <rects>
        <_>
          15 23 4 2 -1.</_>
        <_>
          15 23 2 1 2.</_>
        <_>
          17 24 2 1 2.</_></rects>
      <tilted>0</tilted></_>
    <_>
      <rects>
        <_>
          15 26 2 1 -1.</_>
        <_>
          15 26 1 1 2.</_></rects>
      <tilted>1</tilted></_>
    <_>
      <rects>
        <_>
          16 17 1 3 -1.</_>
        <_>
          16 18 1 1 3.</_></rects>
      <tilted>0</tilted></_>
    <_>
      <rects>
        <_>
          16 18 1 3 -1.</_>
        <_>
          16 19 1 1 3.</_></rects>
      <tilted>0</tilted></_>
    <_>
      <rects>
        <_>
          16 19 1 3 -1.</_>
        <_>
          16 20 1 1 3.</_></rects>
      <tilted>0</tilted></_>
    <_>
      <rects>
        <_>
          16 19 3 3 -1.</_>
        <_>
          17 20 1 1 9.</_></rects>
      <tilted>0</tilted></_>
    <_>
      <rects>
        <_>
          16 19 3 2 -1.</_>
        <_>
          17 20 1 2 3.</_></rects>
      <tilted>1</tilted></_>
    <_>
      <rects>
        <_>
          16 20 1 3 -1.</_>
        <_>
          16 21 1 1 3.</_></rects>
      <tilted>0</tilted></_>
    <_>
      <rects>
        <_>
          16 20 4 2 -1.</_>
        <_>
          16 20 2 1 2.</_>
        <_>
          18 21 2 1 2.</_></rects>
      <tilted>0</tilted></_>
    <_>
      <rects>
        <_>
          16 21 2 2 -1.</_>
        <_>
          16 21 1 1 2.</_>
        <_>
          17 22 1 1 2.</_></rects>
      <tilted>0</tilted></_>
    <_>
      <rects>
        <_>
          16 21 3 3 -1.</_>
        <_>
          17 22 1 1 9.</_></rects>
      <tilted>0</tilted></_>
    <_>
      <rects>
        <_>
          16 22 1 3 -1.</_>
        <_>
          16 23 1 1 3.</_></rects>
      <tilted>0</tilted></_>
    <_>
      <rects>
        <_>
          16 22 2 2 -1.</_>
        <_>
          16 22 1 1 2.</_>
        <_>
          17 23 1 1 2.</_></rects>
      <tilted>0</tilted></_>
    <_>
      <rects>
        <_>
          16 23 1 3 -1.</_>
        <_>
          16 24 1 1 3.</_></rects>
      <tilted>0</tilted></_>
    <_>
      <rects>
        <_>
          16 23 2 2 -1.</_>
        <_>
          16 23 1 1 2.</_>
        <_>
          17 24 1 1 2.</_></rects>
      <tilted>0</tilted></_>
    <_>
      <rects>
        <_>
          16 23 3 3 -1.</_>
        <_>
          16 24 3 1 3.</_></rects>
      <tilted>0</tilted></_>
    <_>
      <rects>
        <_>
          16 24 3 3 -1.</_>
        <_>
          16 25 3 1 3.</_></rects>
      <tilted>0</tilted></_>
    <_>
      <rects>
        <_>
          17 13 6 6 -1.</_>
        <_>
          15 15 6 2 3.</_></rects>
      <tilted>1</tilted></_>
    <_>
      <rects>
        <_>
          17 16 6 13 -1.</_>
        <_>
          17 16 3 13 2.</_></rects>
      <tilted>1</tilted></_>
    <_>
      <rects>
        <_>
          17 19 4 2 -1.</_>
        <_>
          17 19 2 1 2.</_>
        <_>
          19 20 2 1 2.</_></rects>
      <tilted>0</tilted></_>
    <_>
      <rects>
        <_>
          17 20 1 3 -1.</_>
        <_>
          17 21 1 1 3.</_></rects>
      <tilted>0</tilted></_>
    <_>
      <rects>
        <_>
          17 20 2 2 -1.</_>
        <_>
          17 20 1 1 2.</_>
        <_>
          18 21 1 1 2.</_></rects>
      <tilted>0</tilted></_>
    <_>
      <rects>
        <_>
          17 21 2 2 -1.</_>
        <_>
          17 21 1 1 2.</_>
        <_>
          18 22 1 1 2.</_></rects>
      <tilted>0</tilted></_>
    <_>
      <rects>
        <_>
          17 22 2 2 -1.</_>
        <_>
          17 22 1 1 2.</_>
        <_>
          18 23 1 1 2.</_></rects>
      <tilted>0</tilted></_>
    <_>
      <rects>
        <_>
          17 22 6 12 -1.</_>
        <_>
          17 26 6 4 3.</_></rects>
      <tilted>0</tilted></_>
    <_>
      <rects>
        <_>
          17 24 1 3 -1.</_>
        <_>
          17 25 1 1 3.</_></rects>
      <tilted>0</tilted></_>
    <_>
      <rects>
        <_>
          17 24 1 6 -1.</_>
        <_>
          17 24 1 3 2.</_></rects>
      <tilted>1</tilted></_>
    <_>
      <rects>
        <_>
          18 15 3 8 -1.</_>
        <_>
          18 15 3 4 2.</_></rects>
      <tilted>1</tilted></_>
    <_>
      <rects>
        <_>
          18 19 4 12 -1.</_>
        <_>
          18 19 2 6 2.</_>
        <_>
          20 25 2 6 2.</_></rects>
      <tilted>0</tilted></_>
    <_>
      <rects>
        <_>
          18 21 2 2 -1.</_>
        <_>
          18 21 1 1 2.</_>
        <_>
          19 22 1 1 2.</_></rects>
      <tilted>0</tilted></_>
    <_>
      <rects>
        <_>
          20 18 4 14 -1.</_>
        <_>
          20 18 4 7 2.</_></rects>
      <tilted>1</tilted></_></features></cascade>
</opencv_storage>
